<Nnet> 
<AddShift> 1024 1024 
<LearnRateCoef> 0  [ -0.04780781 -0.2936487 -0.09980857 -0.1725795 -0.06577608 -0.4585027 -0.07864793 -0.1841571 -0.1757333 -0.1817612 -0.05844525 -0.07067375 -0.05759876 -0.3156537 -0.06348701 -0.1931233 -0.1749039 -0.168752 -0.2385908 -0.06797007 -0.1182893 -0.1678542 -0.169391 -0.1397256 -0.07034075 -0.09741195 -0.09171243 -0.08290413 -0.1105228 -0.09767488 -0.1865304 -0.1767787 -0.1513705 -0.0503998 -0.07261762 -0.1383163 -0.07619017 -0.158615 -0.06895307 -0.09842708 -0.174232 -0.1897961 -0.2067866 -0.1258048 -0.243407 -0.1026474 -0.06799213 -0.2063825 -0.2018837 -0.07139778 -0.1064327 -0.2217142 -0.1235489 -0.1084774 -0.1378502 -0.1171115 -0.1079924 -0.1167541 -0.08748919 -0.1038022 -0.2073223 -0.04611729 -0.1747948 -0.1932538 -0.04483864 -0.0840068 -0.2077135 -0.09834726 -0.06571386 -0.1168917 -0.0259966 -0.05054485 -0.1758102 -0.08725396 -0.05962454 -0.1310611 -0.206299 -0.06564909 -0.05801684 -0.180861 -0.1625242 -0.2030007 -0.08787793 -0.1178174 -0.06706674 -0.05987389 -0.07882929 -0.03814538 -0.2813886 -0.06507351 -0.1537407 -0.1520615 -0.1095121 -0.1977021 -0.065125 -0.1439809 -0.07027054 -0.0511628 -0.2633128 -0.2331234 -0.07149123 -0.3030827 -0.128509 -0.09955205 -0.1351552 -0.05208525 -0.0277774 -0.1656909 -0.2229515 -0.2065032 -0.1871351 -0.07699548 -0.101807 -0.1208364 -0.08819816 -0.05588897 -0.08078988 -0.1408001 -0.0597892 -0.05785686 -0.2001926 -0.1689267 -0.2173264 -0.1574434 -0.1524806 -0.106539 -0.0426307 -0.1556814 -0.05734659 -0.1190289 -0.1066108 -0.1246566 -0.1685791 -0.1207695 -0.1317507 -0.07351798 -0.1048634 -0.0825958 -0.03592043 -0.1216222 -0.07703587 -0.03939931 -0.08032519 -0.1179104 -0.1572436 -0.1446563 -0.1193157 -0.1798234 -0.09466266 -0.08434527 -0.09602828 -0.178613 -0.1161173 -0.03375843 -0.03617172 -0.1084602 -0.08692588 -0.1981671 -0.1977047 -0.05798079 -0.1024531 -0.1724299 -0.1208766 -0.08910568 -0.1180547 -0.07285125 -0.08604844 -0.06546301 -0.19807 -0.349627 -0.1688019 -0.08081145 -0.184306 -0.1080845 -0.1291595 -0.1215077 -0.1896987 -0.1430656 -0.1120958 -0.2933026 -0.1607699 -0.03923344 -0.0589962 -0.0767127 -0.04665998 -0.1462355 -0.06398009 -0.04036241 -0.05740719 -0.2050008 -0.08465129 -0.08129757 -0.2346449 -0.07418131 -0.1420473 -0.08016612 -0.07539579 -0.1502786 -0.05589381 -0.04467225 -0.1078235 -0.07467418 -0.06543992 -0.1199376 -0.119745 -0.04652252 -0.07916591 -0.06508345 -0.1142167 -0.1296591 -0.04683769 -0.1039735 -0.06596905 -0.07814773 -0.07242503 -0.05333895 -0.06620214 -0.07534003 -0.07596389 -0.04622548 -0.2826126 -0.1149875 -0.05765378 -0.1789245 -0.09502643 -0.05717396 -0.1684698 -0.06040988 -0.07206735 -0.05010835 -0.08237239 -0.1681242 -0.06013366 -0.07527719 -0.167951 -0.3427416 -0.1974645 -0.1935561 -0.1035779 -0.1140329 -0.1307577 -0.18484 -0.06830404 -0.09086428 -0.09951668 -0.06264941 -0.1404808 -0.1634754 -0.099603 -0.07146084 -0.1900662 -0.1217927 -0.1104353 -0.3330054 -0.09791835 -0.05846861 -0.235022 -0.09059955 -0.2426977 -0.06138277 -0.09282658 -0.06972905 -0.2341799 -0.1937031 -0.05338338 -0.05514603 -0.2057528 -0.06432664 -0.07408145 -0.1871566 -0.2262734 -0.2925406 -0.0467765 -0.02725555 -0.1151132 -0.06609897 -0.1245732 -0.203766 -0.1219301 -0.1150008 -0.09223632 -0.2212964 -0.09523948 -0.1459351 -0.1093516 -0.090763 -0.1790129 -0.06549902 -0.06608275 -0.06438544 -0.04329183 -0.0533194 -0.02402958 -0.1891219 -0.09848807 -0.1797606 -0.1866465 -0.1462463 -0.1733231 -0.1053699 -0.1936629 -0.1754531 -0.2065303 -0.02933706 -0.03939887 -0.3347756 -0.1781323 -0.09996425 -0.145955 -0.3457523 -0.09901101 -0.03846664 -0.0670986 -0.126821 -0.04092315 -0.1787729 -0.1038597 -0.1441058 -0.1244409 -0.01872469 -0.1370784 -0.08118321 -0.172509 -0.07803512 -0.2325654 -0.05606258 -0.07386594 -0.1140631 -0.2187923 -0.1468793 -0.05809029 -0.04245985 -0.09245005 -0.2268969 -0.1369873 -0.4429428 -0.1599544 -0.2008887 -0.07942296 -0.04715461 -0.2462596 -0.1846244 -0.4095856 -0.06198561 -0.3600305 -0.1163684 -0.2196073 -0.2055789 -0.185374 -0.2440751 -0.08638869 -0.3809755 -0.194942 -0.04755327 -0.149813 -0.1525573 -0.2026613 -0.09978236 -0.2555115 -0.1218973 -0.3018343 -0.1041756 -0.08788677 -0.1271273 -0.3589618 -0.04664889 -0.1959153 -0.1722639 -0.3666893 -0.04529166 -0.3556088 -0.1676852 -0.1754221 -0.1428824 -0.0957472 -0.1054556 -0.06182733 -0.1153034 -0.08633117 -0.2065937 -0.0982885 -0.06425308 -0.05368137 -0.08286501 -0.09764334 -0.1062862 -0.1342614 -0.1146051 -0.08088149 -0.1672522 -0.1891666 -0.07674135 -0.1076963 -0.2907579 -0.1335131 -0.09978401 -0.09130609 -0.1523032 -0.03118505 -0.1365597 -0.09003787 -0.06966743 -0.1551356 -0.1530409 -0.05311497 -0.041835 -0.06534643 -0.2394918 -0.1770452 -0.1019498 -0.03307398 -0.09221359 -0.06571258 -0.3094086 -0.06830899 -0.07572836 -0.1057303 -0.2085547 -0.1307817 -0.04664518 -0.1234261 -0.07168093 -0.05999635 -0.131959 -0.1850417 -0.2181626 -0.07267147 -0.1191283 -0.1965526 -0.06048351 -0.2770462 -0.06794258 -0.05086201 -0.05196089 -0.2001085 -0.1507732 -0.03871278 -0.04797502 -0.07902215 -0.04340001 -0.1202354 -0.1748933 -0.05608593 -0.07725243 -0.1668585 -0.1338 -0.04848499 -0.08802023 -0.1004819 -0.2057532 -0.06338246 -0.1797125 -0.1755982 -0.04727647 -0.1713099 -0.11309 -0.1400383 -0.1616689 -0.2016005 -0.3182427 -0.08145929 -0.1958674 -0.05157167 -0.1252542 -0.01803353 -0.1148289 -0.1258513 -0.1315915 -0.2206922 -0.0515943 -0.1685034 -0.03561347 -0.1380023 -0.1199216 -0.1078638 -0.2560349 -0.1548005 -0.201705 -0.151222 -0.09163033 -0.1047527 -0.3287494 -0.2220097 -0.1807226 -0.1675777 -0.06606612 -0.1606469 -0.2247936 -0.1911276 -0.2020045 -0.05061907 -0.0599804 -0.09819073 -0.1307794 -0.04994851 -0.1310903 -0.1620688 -0.1871936 -0.1881203 -0.1662041 -0.2125492 -0.09346556 -0.2750097 -0.198821 -0.3939631 -0.1934009 -0.2808542 -0.08734903 -0.08499328 -0.1212866 -0.1522254 -0.039121 -0.07262005 -0.0608682 -0.3040554 -0.07342084 -0.07051907 -0.1880702 -0.1076928 -0.1269082 -0.05398051 -0.1207163 -0.3443612 -0.1634031 -0.09908859 -0.09813048 -0.1527339 -0.2464061 -0.08523942 -0.4439521 -0.1906959 -0.1855359 -0.1556755 -0.1380759 -0.07243695 -0.1827798 -0.03997547 -0.07639074 -0.07116725 -0.3206048 -0.02932718 -0.195463 -0.08810441 -0.1976526 -0.1160436 -0.05719256 -0.05784352 -0.3401304 -0.1164307 -0.1788669 -0.234526 -0.1200428 -0.1581528 -0.1984687 -0.4558249 -0.02349435 -0.0480519 -0.05556753 -0.1090202 -0.1174646 -0.1881884 -0.1217389 -0.1722577 -0.1997265 -0.05388141 -0.3812097 -0.1972542 -0.06512008 -0.08009746 -0.08664387 -0.09312706 -0.05580403 -0.08112045 -0.3209893 -0.06305798 -0.1148659 -0.1000068 -0.05737286 -0.06270675 -0.1348489 -0.03204152 -0.1873256 -0.06801277 -0.04478571 -0.1819469 -0.07190371 -0.09419829 -0.05583633 -0.05333958 -0.104432 -0.02998 -0.1861335 -0.2030593 -0.09129197 -0.1152041 -0.2265303 -0.08834807 -0.1405988 -0.180777 -0.1533087 -0.1695702 -0.189965 -0.1436628 -0.09461172 -0.07929169 -0.1736904 -0.04725164 -0.2251061 -0.02569537 -0.1152525 -0.141571 -0.06765479 -0.06707205 -0.1825285 -0.06781498 -0.143456 -0.1063666 -0.1857125 -0.1938996 -0.2892134 -0.1698492 -0.3315558 -0.1157102 -0.01886711 -0.08862855 -0.02883845 -0.09981747 -0.09876537 -0.09504743 -0.06029406 -0.08002224 -0.1726274 -0.1679499 -0.06307209 -0.07899645 -0.1094023 -0.1844931 -0.1989241 -0.1890054 -0.1074399 -0.06346518 -0.1858458 -0.024786 -0.05936461 -0.2089968 -0.1382523 -0.08233228 -0.02104921 -0.1914363 -0.09892106 -0.1857334 -0.3111356 -0.1031707 -0.1905364 -0.09033292 -0.3057647 -0.06697594 -0.05678542 -0.3610181 -0.1267561 -0.2009543 -0.09079207 -0.03726713 -0.130544 -0.2153503 -0.182328 -0.1421421 -0.1166028 -0.2067932 -0.1778341 -0.2374423 -0.3129416 -0.2502321 -0.08124207 -0.1069797 -0.09945117 -0.1087462 -0.1348365 -0.0705855 -0.2816176 -0.2665045 -0.06408755 -0.09895609 -0.1934351 -0.05602522 -0.1659377 -0.08884203 -0.13257 -0.07718099 -0.1332364 -0.07865731 -0.1079727 -0.08888349 -0.1237686 -0.2053502 -0.311261 -0.1334992 -0.15639 -0.08762104 -0.07002394 -0.0759045 -0.1911813 -0.07288837 -0.1824482 -0.1907534 -0.06844727 -0.1576469 -0.1158107 -0.1630629 -0.1156265 -0.1131556 -0.01954504 -0.09795731 -0.06984573 -0.07823766 -0.1967376 -0.07513185 -0.02647272 -0.2032571 -0.09627537 -0.2245016 -0.1844234 -0.05963522 -0.1227317 -0.1391287 -0.1096535 -0.1794691 -0.05410427 -0.1793966 -0.03678754 -0.03181307 -0.3413799 -0.08822356 -0.03482737 -0.09013146 -0.08945771 -0.1093496 -0.1680887 -0.07891484 -0.1090239 -0.2000517 -0.05239532 -0.1264545 -0.2040678 -0.3913185 -0.1022674 -0.06918925 -0.1239587 -0.1579884 -0.06220403 -0.08724037 -0.08063941 -0.1635907 -0.1068643 -0.1868578 -0.1301192 -0.09277253 -0.323547 -0.1849863 -0.171454 -0.0826169 -0.06383385 -0.1782715 -0.1777591 -0.07191575 -0.06372171 -0.09744023 -0.1160436 -0.06065349 -0.1670548 -0.03728746 -0.07268081 -0.2539041 -0.08693751 -0.1560413 -0.1577903 -0.3034646 -0.03580837 -0.1849329 -0.06806885 -0.1361996 -0.1287954 -0.2327798 -0.09648629 -0.1979536 -0.1283007 -0.1728238 -0.193846 -0.1137146 -0.05750547 -0.189163 -0.09479074 -0.1777153 -0.09597237 -0.1261083 -0.07247773 -0.1124221 -0.06347258 -0.09412135 -0.03817356 -0.1869733 -0.2235248 -0.0494284 -0.1796008 -0.1231436 -0.1236914 -0.2016638 -0.1956302 -0.3003737 -0.08133724 -0.137194 -0.04028527 -0.1391297 -0.08948626 -0.1934827 -0.2937498 -0.1849805 -0.08371079 -0.07245704 -0.2101348 -0.1226505 -0.09619778 -0.1491548 -0.1746673 -0.02633937 -0.1529159 -0.1132786 -0.06533665 -0.09782556 -0.2803811 -0.1179173 -0.1937387 -0.05539668 -0.1844236 -0.2022057 -0.07353098 -0.07027664 -0.2004214 -0.04230846 -0.07019673 -0.08152581 -0.07100955 -0.1115511 -0.1796295 -0.1136107 -0.1020966 -0.05568205 -0.06111892 -0.05170722 -0.1307841 -0.2030225 -0.1615789 -0.05271669 -0.06390354 -0.0402895 -0.1242757 -0.1078232 -0.09990593 -0.3335996 -0.09490715 -0.1999062 -0.184382 -0.04885284 -0.1115522 -0.1308459 -0.02666296 -0.09672506 -0.1890637 -0.2016769 -0.09180529 -0.09755725 -0.1416567 -0.0916445 -0.3299874 -0.02068305 -0.06194641 -0.1070683 -0.1020613 -0.1807163 -0.05309915 -0.1515199 -0.1826823 -0.1160752 -0.1062292 -0.06367107 -0.08669075 -0.1161079 -0.2010814 -0.1862664 -0.0658698 -0.04920535 -0.08671267 -0.1182023 -0.0700458 -0.08296364 -0.3453866 -0.1734755 -0.2921086 -0.08567932 -0.200233 -0.1273845 -0.1499445 -0.05624355 -0.1361694 -0.122408 -0.2971579 -0.09673966 -0.05134735 -0.131207 -0.3891766 -0.1068487 -0.09359396 -0.1363493 -0.08019438 -0.2154553 -0.04873232 -0.1037475 -0.2343052 -0.1557864 -0.1198801 -0.04555533 -0.1875697 -0.1065013 -0.09583733 -0.1436477 -0.0932553 -0.1954104 -0.06713229 -0.1147782 -0.1558749 -0.1100329 -0.1038623 -0.1551337 -0.1132102 -0.09512347 -0.03467624 -0.07741304 -0.04804674 -0.2323638 -0.04938112 -0.1882381 -0.1170907 -0.09063251 -0.08736373 -0.09498031 -0.1956888 -0.1751624 -0.1323896 -0.0765572 -0.2057093 -0.1788619 -0.3381979 -0.08900461 -0.126702 -0.1289784 -0.19507 -0.3088571 -0.06593864 -0.07546724 -0.1698201 -0.06047168 -0.1771663 -0.1616255 -0.05743784 -0.05507865 -0.1495435 -0.1314467 -0.06034131 -0.1996371 -0.1910083 -0.1511974 -0.06216941 -0.1711344 -0.1889573 -0.1107635 -0.318969 -0.1628826 -0.1228766 -0.09274127 -0.05969195 -0.05335979 -0.08774222 -0.08004101 -0.1117503 -0.03801232 -0.1808 -0.06223305 -0.08908428 -0.05014817 -0.1516322 -0.1816508 -0.1050524 -0.1239068 -0.1089973 -0.07080562 -0.07111561 -0.09779334 -0.04544992 -0.1352004 -0.2315519 -0.1574139 -0.1764822 -0.04487162 -0.3008923 -0.0999072 -0.03806643 -0.2090809 -0.07371914 -0.06029598 -0.08636193 -0.157351 -0.1269841 -0.100882 -0.1399879 -0.03522021 -0.07313491 -0.1157798 -0.2704482 -0.1780909 -0.2093897 -0.06286857 -0.1154904 -0.1717407 -0.1890925 ]
<!EndOfComponent> 
<Rescale> 1024 1024 
<LearnRateCoef> 0  [ 6.354347 3.007952 5.152801 5.007539 5.925349 2.612771 6.481684 4.472053 4.635166 3.475134 7.373404 7.844773 5.772162 3.014527 6.513268 4.267781 4.363546 4.504318 3.39904 5.926626 5.885564 4.357156 4.028157 4.932083 7.351265 5.887308 6.730932 4.651526 5.651985 4.872426 4.282445 4.598094 4.169182 6.856972 5.329988 5.355224 6.63796 4.297728 5.235953 6.018179 4.316009 4.140145 4.158308 5.830912 2.918984 5.697536 5.079824 3.211366 4.130311 6.125806 5.12449 3.429966 5.274865 4.054574 4.637042 5.134839 5.342412 4.40723 5.821513 5.256815 4.075704 6.998246 3.752036 4.31252 6.973537 5.792255 4.119526 5.50256 5.925275 5.108243 9.042487 9.828899 4.784963 5.445433 6.09118 5.108247 3.786126 5.556117 6.850683 4.378294 5.140807 4.171922 6.070884 5.220001 5.69606 7.198503 6.440001 8.601486 2.926687 6.84068 3.810233 4.81099 5.64344 4.419696 6.356811 5.064162 7.052918 6.567653 2.871168 3.151169 7.787178 2.457155 5.725403 6.114632 5.730303 7.92556 8.600128 3.482485 3.587856 4.243145 4.375636 5.62851 5.722317 4.186357 5.010606 7.40362 6.151622 3.766216 6.852333 7.959161 4.164616 3.755223 3.194239 4.375693 4.278329 5.367804 8.621255 4.51965 6.912614 5.840153 5.783755 5.016262 4.953988 4.853803 4.647622 6.025764 5.154541 6.016163 9.073457 5.409491 5.50098 6.733142 4.804995 5.072999 5.248718 3.655032 5.290585 3.406351 5.69772 6.081819 4.843348 4.513191 6.144026 7.582082 6.855909 5.326207 6.334047 4.173157 4.292779 8.846273 5.636573 3.308871 4.827845 5.787742 5.393079 5.422817 6.111084 5.257794 4.155552 2.789593 4.456882 6.756629 3.549552 5.151112 4.906594 5.233817 4.108856 4.59045 5.87917 2.893828 4.376791 6.908093 6.847241 5.17171 7.142723 4.938471 6.759408 6.647349 7.326762 4.237993 5.434472 7.266012 5.194946 6.544209 5.296227 6.815749 5.357903 4.692733 5.911267 6.287852 5.515347 6.904807 6.234241 3.903877 5.863223 6.662194 4.719043 6.225763 6.292694 5.906404 6.17181 6.137375 7.658442 6.764917 5.530859 6.93262 5.91485 5.991924 6.039437 6.069129 2.885056 5.048465 7.182162 3.873066 5.550196 8.011493 4.758685 7.19255 5.590549 6.21158 5.830135 4.284408 6.33405 7.582295 4.594074 2.681619 4.265106 4.352551 6.282053 4.309843 5.628381 4.560674 5.388754 5.747813 5.752523 10.58994 5.397354 4.658034 6.122031 5.444417 4.20379 5.539152 5.238877 2.954403 5.700912 5.831817 4.347699 4.658068 3.17413 7.360419 5.871776 7.713669 3.847926 4.371501 6.657145 5.275497 4.341888 8.154882 5.528458 4.33198 3.235477 3.102349 6.830058 8.121645 6.596507 6.65586 6.140875 4.236768 4.772877 6.657427 5.943654 3.205251 5.835767 4.710909 5.951589 7.196894 3.623955 9.317336 6.121228 5.910253 7.486682 6.921585 9.548866 4.378801 5.518971 4.486655 3.503497 5.296539 4.131915 5.022007 4.341874 4.607282 4.257961 8.354593 9.711739 2.797471 4.516489 5.518884 5.020259 2.977965 5.781049 6.97371 6.542776 5.947136 9.103123 4.506033 6.387282 4.679669 4.492875 9.903343 4.148032 5.246963 4.7507 6.314168 3.355774 6.714452 6.749701 4.65441 3.101787 5.45302 6.234041 8.354342 6.4241 3.7186 4.982569 2.573912 4.248582 3.709245 5.877316 6.869539 2.931533 4.208147 2.928608 5.233141 2.740464 6.137311 3.719384 3.969022 3.86496 3.210916 4.818215 3.01581 4.326431 8.945291 4.907507 4.847118 4.084893 6.372767 3.095743 5.545537 3.129975 4.77546 6.198738 5.932044 2.783377 6.259772 4.393398 4.476267 3.055938 9.278401 3.12054 4.629381 4.484101 5.105966 4.858342 6.48872 5.977479 5.506583 6.133797 3.986737 6.115184 5.800106 7.84145 5.908987 5.455078 4.335495 5.673028 5.082708 5.240274 4.558828 4.682102 4.740897 5.915106 3.163744 5.11711 5.130968 6.94777 4.138524 8.689429 3.767505 4.23263 5.690578 4.701996 3.680324 5.92235 6.862523 5.163864 3.223621 3.929506 5.385696 8.359222 4.89787 6.078798 2.445526 6.276451 6.784491 4.978096 4.179316 3.865607 9.123352 5.059626 6.988202 6.495568 5.141572 4.605043 5.063739 5.288825 5.830117 4.348284 6.058955 3.09883 4.916374 8.20959 5.894888 4.309242 5.045078 7.19294 9.649584 5.655209 6.753771 4.173734 4.622493 6.944114 6.409966 5.05027 5.528329 6.728492 6.447067 6.293821 4.159315 5.469604 3.768591 4.847944 6.226934 4.569396 5.111675 5.597158 4.123201 4.115407 2.762196 6.32025 4.189419 6.15276 5.350067 11.24525 5.206489 4.665492 4.673836 3.524506 7.495465 4.885931 7.005797 5.237999 5.096779 5.345643 3.308793 3.957917 3.642947 4.205043 5.468493 4.37398 2.391914 4.702528 4.465712 4.716434 7.836175 4.764692 3.203675 4.128998 4.342996 7.723434 7.680689 5.114882 4.120174 8.192159 5.47401 4.173026 4.466015 4.532733 4.317042 4.338476 5.732206 2.971637 4.035622 2.8928 4.354591 3.07059 5.874287 4.496027 3.920824 4.776483 6.779179 6.417144 7.663585 2.477032 7.833002 7.279969 4.449683 5.756964 5.741044 8.457135 4.950067 2.388277 4.775739 6.143826 5.572128 4.860032 3.174725 6.333549 2.647053 4.281525 4.329275 4.139947 5.912705 8.309198 4.863436 7.163712 5.181801 6.900815 2.399385 9.705066 4.366218 5.578349 4.460347 5.28468 7.915924 6.555445 2.759542 5.650361 4.261694 3.136876 5.144549 4.762823 4.376041 2.702532 8.572964 6.662502 6.076182 5.519291 5.2892 4.370557 4.844687 4.650654 4.381337 6.559277 2.849334 4.268261 5.651902 5.244483 6.023634 6.21152 8.217979 6.093342 2.839991 5.12914 5.616148 6.527174 5.420713 8.560642 4.70369 8.036462 4.083252 7.753625 6.595107 4.525474 6.090867 5.418924 6.257848 6.953465 5.983081 8.440179 4.143706 4.630822 4.783768 4.27711 3.142962 6.078746 4.690018 4.357251 5.476998 4.761615 4.267383 5.146265 5.492444 4.88033 4.647719 7.80235 3.233529 8.88351 5.240753 5.395511 5.331918 7.626923 4.469576 5.445649 4.05622 5.516919 3.942423 5.129734 2.999915 3.976822 2.44428 5.542797 9.03044 6.096135 9.343444 5.746314 5.353683 4.641678 6.574257 6.258789 4.720161 4.775654 5.992003 5.030711 6.0921 3.47767 4.159976 4.364227 5.661477 6.500187 4.282742 9.048871 5.640753 3.967219 5.848633 7.083689 9.050028 4.388671 6.056275 4.363547 2.943991 4.124915 4.321978 6.017685 2.66897 6.572516 6.452199 2.874476 5.61454 4.232511 4.898206 8.005756 4.746748 3.022831 4.463217 3.593032 6.266194 4.22147 4.471153 2.996707 2.888327 3.313012 5.917533 5.677541 5.526759 5.419446 4.304349 6.417002 3.165431 3.519454 4.974484 5.321249 4.48774 5.78135 4.831729 6.863856 5.054099 5.877202 3.963912 6.903714 5.694917 6.519557 4.900396 4.342766 2.926546 4.448605 4.821126 5.643579 6.347537 6.856457 4.313837 5.549506 4.502281 4.44546 6.460839 4.622465 6.268488 4.673977 5.491574 5.486497 9.340465 4.275232 7.175981 6.087701 4.701825 7.150665 9.477005 4.260233 6.12411 3.422166 4.363832 8.599483 3.748655 5.430916 5.571841 4.829294 5.878698 4.404939 7.791759 8.451955 2.765759 6.358937 7.198649 4.854205 5.561088 5.866539 4.049932 6.807946 5.858788 4.149091 6.89308 5.835857 3.203759 2.867172 5.942863 7.062843 5.423076 4.708653 5.833583 6.162927 5.013833 3.898612 5.97621 4.242328 5.455882 5.781407 2.423302 4.568214 4.656637 6.895751 5.870895 4.406615 4.107585 6.522802 8.192422 7.036705 5.408309 8.048942 3.357967 8.177644 6.526622 3.148901 6.332815 4.983237 4.991737 3.058525 6.967301 4.493815 6.786915 5.164165 4.539289 4.843972 6.1693 4.087433 4.935713 4.532644 4.525366 5.90442 6.212578 4.463113 6.517673 4.230105 5.940256 5.048663 6.086243 6.373988 5.384054 5.956255 7.057204 4.347073 3.169521 7.552425 4.301304 5.671761 4.294544 3.454737 3.19488 2.875739 4.65592 5.36944 6.827178 5.018993 4.703954 3.546092 2.65415 4.633785 4.876989 6.771768 3.17326 5.721938 6.410378 3.797277 4.429183 8.849886 3.881817 5.624602 5.21897 6.641694 2.896414 4.052329 4.805547 6.640293 4.25947 4.249691 5.345534 6.56666 4.323783 6.795567 7.661732 5.860372 8.054024 5.483693 4.518174 5.999312 5.299522 6.899816 8.874924 6.189749 4.902307 4.36787 4.242949 6.28625 5.235498 7.856086 5.603033 4.029085 7.148358 2.860269 5.753382 4.314495 4.790419 7.642135 5.075268 5.50271 8.163456 4.335154 4.289035 4.281986 5.634629 5.713489 4.311771 5.682494 2.414533 9.347699 6.105583 5.403478 5.60442 4.425877 8.612055 3.996818 4.613864 5.046692 4.195212 6.491822 5.578983 3.841835 4.017339 4.100468 7.775848 6.880551 6.128659 5.662148 5.898015 5.926203 2.905333 4.090498 2.903102 7.930451 4.212841 4.658517 5.269151 8.170777 4.536343 5.328365 3.143342 6.306985 6.239223 4.777936 2.638837 4.824796 6.137479 4.506971 5.53246 3.992674 6.397595 5.851772 4.67779 5.294796 6.030171 9.66847 4.369392 5.527102 5.650618 5.232209 5.564429 4.34681 6.70449 5.716954 4.670909 3.986186 4.271298 4.464091 5.447046 6.116429 11.26203 5.809227 6.976639 3.448949 7.382813 3.956704 5.389248 5.573723 5.945997 5.632912 4.35094 3.805088 4.774039 4.714668 4.230403 4.793943 2.931048 6.091533 3.787391 3.717453 4.258528 2.79634 7.544728 6.194696 4.359888 6.418283 4.439768 4.854489 5.746514 6.206548 3.763662 4.156858 6.406883 5.236122 4.474086 4.794446 5.865499 4.586032 4.269784 6.410386 2.427166 4.652945 5.489457 4.494418 7.088182 9.346498 6.522809 5.781281 5.557267 8.036365 4.525068 5.588283 7.442946 5.761573 4.275595 4.353498 5.857109 5.521159 4.356445 7.140769 6.361985 4.448948 6.096484 4.287746 3.620969 4.279225 4.553259 6.559956 2.837231 6.81707 7.630652 4.05658 6.895785 6.324894 5.977566 4.417236 5.078657 5.637129 3.962579 7.732839 6.622691 5.487227 3.021876 4.613801 3.544693 5.220302 3.952114 4.034028 4.33425 ]
<!EndOfComponent> 
</Nnet> 
