<Nnet> 
<AddShift> 1024 1024 
<LearnRateCoef> 0  [ -0.1569404 -0.1198656 -0.1410287 -0.09803405 -0.1529961 -0.1297206 -0.09386413 -0.1337027 -0.1113085 -0.0928123 -0.1028484 -0.1421038 -0.1325194 -0.1515236 -0.1690892 -0.09585633 -0.123068 -0.1422715 -0.1117691 -0.2630067 -0.08890359 -0.1284563 -0.1554612 -0.1261066 -0.2228729 -0.1888967 -0.1182473 -0.1131775 -0.1122665 -0.1669065 -0.1210699 -0.1384582 -0.1099077 -0.1229699 -0.1276116 -0.1907357 -0.1682166 -0.147246 -0.1031436 -0.05625876 -0.1127569 -0.1081851 -0.09862881 -0.1307373 -0.1145407 -0.1176651 -0.1475381 -0.272589 -0.1351815 -0.1463255 -0.1537048 -0.1906544 -0.08160257 -0.1058968 -0.194418 -0.07936908 -0.07533631 -0.1297708 -0.1448556 -0.1053264 -0.138844 -0.1333449 -0.09249143 -0.1521713 -0.1389034 -0.1324602 -0.1330109 -0.1779809 -0.1231215 -0.166008 -0.1181244 -0.1428529 -0.1053032 -0.1565885 -0.1256506 -0.100111 -0.1366067 -0.1684819 -0.1013338 -0.1604842 -0.1394009 -0.08868676 -0.185857 -0.1418189 -0.1750118 -0.1276384 -0.147124 -0.1422423 -0.1059355 -0.09725513 -0.2545657 -0.05342034 -0.0946755 -0.1446107 -0.08635468 -0.10411 -0.1698758 -0.1104576 -0.1242798 -0.1401092 -0.1447299 -0.1384506 -0.1026779 -0.1423424 -0.1336178 -0.1560707 -0.0847557 -0.1530886 -0.1442922 -0.1292267 -0.1158691 -0.152354 -0.1463192 -0.09963419 -0.1321246 -0.1313728 -0.1202525 -0.1674059 -0.06107574 -0.1328481 -0.1801885 -0.1600644 -0.1792834 -0.1022611 -0.1407401 -0.1145087 -0.1336821 -0.1318863 -0.06654197 -0.1158316 -0.1011507 -0.150454 -0.1391656 -0.1738948 -0.1528491 -0.1640746 -0.07028285 -0.1312845 -0.1281932 -0.165018 -0.09462528 -0.1110711 -0.09628611 -0.1388236 -0.1233049 -0.1311373 -0.1800323 -0.1753903 -0.1317777 -0.1219318 -0.1013021 -0.1606886 -0.1226197 -0.1648228 -0.157811 -0.1170815 -0.1239255 -0.137106 -0.149753 -0.1644717 -0.1689803 -0.1653962 -0.120819 -0.1315499 -0.1248751 -0.1765743 -0.1136237 -0.2011438 -0.1011672 -0.1251605 -0.1622249 -0.1338988 -0.1316259 -0.1407983 -0.1204539 -0.1505609 -0.1823584 -0.133437 -0.134396 -0.1646321 -0.1468227 -0.09514758 -0.09939575 -0.1727825 -0.1489182 -0.1637108 -0.1474926 -0.1411867 -0.1420363 -0.1199192 -0.1461178 -0.1649105 -0.1435954 -0.1269025 -0.1024477 -0.08209464 -0.1459374 -0.1502291 -0.1399569 -0.1352066 -0.1360753 -0.1041394 -0.1522434 -0.1707674 -0.128695 -0.1357792 -0.1265255 -0.14606 -0.0718381 -0.2496772 -0.1584117 -0.1066957 -0.1482155 -0.1223522 -0.08755728 -0.177864 -0.1127117 -0.05879868 -0.1368887 -0.1594256 -0.1370841 -0.1840994 -0.1315554 -0.09624361 -0.1262057 -0.1505648 -0.1593359 -0.1128122 -0.1154036 -0.1765575 -0.15711 -0.1578958 -0.08005083 -0.1507567 -0.1393497 -0.07389021 -0.1996669 -0.1047891 -0.153671 -0.1469395 -0.1587897 -0.1815351 -0.159309 -0.1198669 -0.1523438 -0.130458 -0.2035344 -0.1313625 -0.1213909 -0.1135546 -0.1422505 -0.1542516 -0.1710239 -0.1173777 -0.1193456 -0.1009494 -0.1439217 -0.145991 -0.1719173 -0.1015116 -0.1441815 -0.1343327 -0.1447889 -0.1706558 -0.1126483 -0.1160553 -0.1384488 -0.1647072 -0.1187963 -0.1648192 -0.1499348 -0.1335024 -0.1226276 -0.1699307 -0.1240453 -0.04634237 -0.09030632 -0.1489936 -0.1089688 -0.1279682 -0.1148066 -0.1035083 -0.1057139 -0.1384767 -0.1318127 -0.1731744 -0.1360399 -0.1263114 -0.129948 -0.1612042 -0.1334422 -0.185726 -0.1095562 -0.1034437 -0.1096786 -0.1439516 -0.1370918 -0.09459089 -0.1307436 -0.1261528 -0.1375506 -0.1156694 -0.1391255 -0.152887 -0.1448048 -0.1479506 -0.129545 -0.1021082 -0.1463995 -0.1486202 -0.1089098 -0.140841 -0.129361 -0.1434106 -0.1272769 -0.1510508 -0.1459556 -0.1326397 -0.1354635 -0.06372565 -0.1180471 -0.1745666 -0.1473548 -0.1350448 -0.1771017 -0.1467961 -0.1326571 -0.1459676 -0.1821596 -0.131818 -0.1321091 -0.373413 -0.1100213 -0.1115631 -0.1179863 -0.1050488 -0.1376261 -0.06581657 -0.06554662 -0.1418104 -0.3746478 -0.07530494 -0.141591 -0.2608434 -0.1177441 -0.1148855 -0.2864963 -0.1562484 -0.1508723 -0.1133042 -0.1517295 -0.1070479 -0.09832793 -0.08331077 -0.1394734 -0.1228066 -0.1422843 -0.1611155 -0.136977 -0.1050331 -0.1140242 -0.143949 -0.1245462 -0.1641117 -0.1328227 -0.1692469 -0.1184809 -0.157358 -0.1254715 -0.214972 -0.1117767 -0.1811733 -0.1212193 -0.07219787 -0.137892 -0.1699962 -0.1206025 -0.1493101 -0.1181909 -0.2516633 -0.1728846 -0.1286525 -0.1906363 -0.1590122 -0.263687 -0.1410049 -0.08230916 -0.1457958 -0.1202898 -0.1497857 -0.1663446 -0.1526315 -0.3470232 -0.1458652 -0.1051372 -0.08394523 -0.08561851 -0.1194065 -0.1926817 -0.1879324 -0.1668153 -0.173978 -0.4025202 -0.132356 -0.0510662 -0.1384756 -0.1266554 -0.1182972 -0.1550006 -0.1211653 -0.1281929 -0.1486365 -0.09687071 -0.1423116 -0.1363807 -0.1032361 -0.1311755 -0.1410923 -0.1533277 -0.1342585 -0.1335853 -0.1078563 -0.1729543 -0.1435079 -0.1456719 -0.1587081 -0.1714335 -0.1510731 -0.1278786 -0.1289552 -0.1286694 -0.1524492 -0.107033 -0.1714079 -0.1862911 -0.115008 -0.1213871 -0.07489952 -0.1348675 -0.09067462 -0.1768737 -0.126004 -0.03478009 -0.1424734 -0.1232097 -0.1393018 -0.13696 -0.1056279 -0.1874323 -0.1169076 -0.1400173 -0.1207217 -0.1346404 -0.1403655 -0.1780078 -0.1552875 -0.1065005 -0.1058143 -0.1397442 -0.1759507 -0.09512261 -0.128805 -0.09144346 -0.128358 -0.1592089 -0.1283457 -0.1091977 -0.1146822 -0.1418639 -0.1400662 -0.1478375 -0.1199059 -0.1373685 -0.1567157 -0.1182051 -0.1269714 -0.1186894 -0.1337865 -0.1177423 -0.09247853 -0.1329418 -0.1553881 -0.1119972 -0.1391033 -0.1111723 -0.07933531 -0.1246005 -0.167081 -0.1305795 -0.152315 -0.1191693 -0.1597879 -0.1559329 -0.1792534 -0.1198849 -0.1684348 -0.1347491 -0.1472824 -0.1109532 -0.123137 -0.1438623 -0.1296138 -0.1416636 -0.1250109 -0.1043751 -0.1432094 -0.1311866 -0.131528 -0.1244944 -0.1172731 -0.1342914 -0.1194969 -0.1800286 -0.1418413 -0.1352648 -0.07894343 -0.09739542 -0.1444856 -0.1461679 -0.1395741 -0.1130365 -0.1284004 -0.2063086 -0.1504382 -0.115885 -0.1845992 -0.1367036 -0.1389547 -0.1072648 -0.1359411 -0.1354113 -0.1121235 -0.1573177 -0.1321729 -0.1783712 -0.09778064 -0.3253081 -0.1227593 -0.1369688 -0.1062982 -0.1604795 -0.1371023 -0.1311001 -0.1178426 -0.1633798 -0.1119056 -0.1226179 -0.0715835 -0.1544792 -0.08477854 -0.149121 -0.1118175 -0.08653051 -0.2604666 -0.119439 -0.1480303 -0.09879434 -0.140142 -0.1183425 -0.1532612 -0.1065418 -0.09767283 -0.1225214 -0.1224362 -0.1294978 -0.1059495 -0.1269969 -0.1524543 -0.1157029 -0.1561034 -0.1332273 -0.1516358 -0.147183 -0.2034874 -0.1449405 -0.1498872 -0.1586219 -0.1203196 -0.1184722 -0.1450204 -0.1485617 -0.1703149 -0.1487037 -0.1393322 -0.1546585 -0.1036263 -0.1406163 -0.1065063 -0.08900447 -0.1616368 -0.1824127 -0.2153697 -0.1451434 -0.1308613 -0.1760548 -0.1432673 -0.1369215 -0.1300842 -0.1801782 -0.1399351 -0.1255085 -0.09350863 -0.1374702 -0.0972913 -0.1190424 -0.1109056 -0.1802576 -0.1446282 -0.1288527 -0.1486719 -0.238458 -0.1176117 -0.1485295 -0.1269497 -0.1465181 -0.1292538 -0.1112988 -0.1169753 -0.1227068 -0.1200627 -0.07985464 -0.1774189 -0.1434466 -0.1135652 -0.1637562 -0.1310201 -0.1473981 -0.1430845 -0.2734206 -0.1625869 -0.1212618 -0.1832454 -0.09670781 -0.1246347 -0.1553767 -0.1424474 -0.1164249 -0.1211402 -0.1685149 -0.1323421 -0.1270698 -0.1056809 -0.1453945 -0.108984 -0.1473061 -0.1142006 -0.1536211 -0.1080609 -0.1460544 -0.143069 -0.1800102 -0.3669402 -0.2269882 -0.1320407 -0.1179164 -0.1793283 -0.102091 -0.1971122 -0.09984941 -0.1325251 -0.144715 -0.09765353 -0.1393453 -0.152567 -0.118785 -0.1351379 -0.1375142 -0.1404899 -0.1802604 -0.1571099 -0.09629411 -0.1055005 -0.07533767 -0.07309921 -0.1400178 -0.1737906 -0.1215344 -0.1317386 -0.1406758 -0.1330233 -0.125035 -0.1163867 -0.146602 -0.09545831 -0.1660376 -0.1363356 -0.1436214 -0.1238536 -0.1972698 -0.1017847 -0.1638537 -0.1183724 -0.1109331 -0.04337931 -0.09757688 -0.1516996 -0.1687837 -0.1949176 -0.1351121 -0.1040686 -0.1668313 -0.1028265 -0.119113 -0.1510417 -0.1200971 -0.1084062 -0.3007511 -0.1248843 -0.1319116 -0.1574173 -0.1738132 -0.166684 -0.1266916 -0.1306102 -0.1412331 -0.1251632 -0.1463066 -0.09610403 -0.1266249 -0.1233565 -0.1095862 -0.09389722 -0.172916 -0.09682366 -0.1384074 -0.09273977 -0.1311956 -0.1827635 -0.1186962 -0.1157737 -0.1273079 -0.09668895 -0.1097251 -0.08858746 -0.1221689 -0.1312692 -0.1009042 -0.09757593 -0.1016772 -0.1363337 -0.1619888 -0.11427 -0.1206326 -0.1336905 -0.1492286 -0.1215061 -0.09670339 -0.1607379 -0.1171591 -0.1484228 -0.1752774 -0.1080681 -0.1575738 -0.07180126 -0.1453048 -0.1110374 -0.2315005 -0.1303295 -0.1075627 -0.1126071 -0.1016774 -0.1289181 -0.1488972 -0.09801599 -0.09413747 -0.1541393 -0.1456693 -0.120366 -0.110201 -0.2760684 -0.2931285 -0.08677947 -0.1425217 -0.09480245 -0.1526184 -0.1067291 -0.1413881 -0.164366 -0.1215017 -0.1642053 -0.1020029 -0.1536725 -0.2378884 -0.1026865 -0.1535279 -0.1239798 -0.1360253 -0.1696484 -0.09778345 -0.1220204 -0.1341344 -0.1490642 -0.1340907 -0.1401582 -0.1171604 -0.09351229 -0.1299601 -0.149675 -0.1079343 -0.1526676 -0.03045488 -0.2416364 -0.1698425 -0.113921 -0.084334 -0.1802839 -0.1534876 -0.1534549 -0.1237471 -0.1391661 -0.172716 -0.1255641 -0.08751302 -0.1686767 -0.1193157 -0.1272902 -0.09627782 -0.1755413 -0.1228296 -0.147459 -0.1696387 -0.1305883 -0.1688724 -0.1049304 -0.1280893 -0.1293005 -0.0869923 -0.1032946 -0.1157834 -0.09537531 -0.08320663 -0.1310424 -0.1313462 -0.1076457 -0.1352917 -0.1595626 -0.2556381 -0.1470774 -0.1276009 -0.08562155 -0.1058851 -0.1334443 -0.1207372 -0.1174939 -0.1460376 -0.04269906 -0.06333332 -0.174525 -0.1297182 -0.1200961 -0.1396737 -0.1410143 -0.1207815 -0.1218283 -0.1534144 -0.1440559 -0.1118608 -0.1395378 -0.133398 -0.07327589 -0.120871 -0.1128415 -0.03455254 -0.1008861 -0.1666795 -0.1043751 -0.1231583 -0.1446515 -0.1210799 -0.09586387 -0.152826 -0.2809213 -0.2165185 -0.1385889 -0.1190589 -0.1598517 -0.1872934 -0.1622428 -0.0944767 -0.0233303 -0.124929 -0.1055542 -0.1100767 -0.166329 -0.1222874 -0.09539287 -0.172116 -0.1158357 -0.08692489 -0.1338383 -0.1262386 -0.1039948 -0.1368228 -0.1402603 -0.0927463 -0.1218628 -0.1503478 -0.16785 -0.1223415 -0.3505269 -0.1642558 -0.1384609 -0.1466692 -0.1111459 -0.2835675 -0.1644182 -0.1064354 -0.1199532 -0.1628034 -0.1070037 -0.1378528 -0.1410193 -0.09427358 -0.1334751 -0.1581762 -0.1582315 -0.1764327 -0.1365595 -0.102674 -0.1142729 -0.1430517 -0.1267212 -0.09012501 -0.1370612 -0.1191165 -0.1576102 -0.1256878 -0.1869893 -0.09720159 -0.1387826 -0.09813723 -0.1644657 -0.2183273 -0.1694271 -0.1437857 -0.120539 -0.184351 -0.1211702 -0.2018424 -0.1157577 -0.1278334 -0.1303864 -0.1098107 -0.06452075 -0.1081388 -0.1142016 -0.1222892 -0.1347663 -0.06521493 -0.1129898 -0.07599667 -0.1816883 -0.1092025 -0.1444717 -0.1526182 -0.1805522 -0.1347665 -0.1248558 -0.1780352 -0.1680809 -0.09512603 -0.1139113 -0.1457255 -0.06467462 -0.08556236 -0.1111985 -0.1279539 -0.1171404 -0.2589056 -0.1459198 -0.1711641 -0.1284551 -0.1609029 -0.1550778 -0.1097845 -0.1638837 -0.2686638 -0.2075451 -0.1089657 -0.07147912 -0.1132303 -0.09457337 -0.07444724 -0.1110084 -0.1120896 -0.1040054 -0.1459557 -0.1080671 -0.1571902 -0.09488577 -0.1529713 -0.1190944 -0.1263648 -0.1286793 -0.1076715 -0.1223674 -0.1369438 -0.1430014 -0.1358646 -0.1417816 -0.168722 -0.07796532 -0.1184191 -0.1622954 -0.144632 -0.1072835 -0.1465465 -0.1390209 -0.1103532 -0.104472 -0.1508832 -0.1272445 -0.1674708 -0.1078272 -0.154746 -0.1565137 -0.1321631 -0.1183395 -0.1167107 -0.1865343 -0.1400456 -0.1382024 -0.1468258 -0.08347072 ]
<!EndOfComponent> 
<Rescale> 1024 1024 
<LearnRateCoef> 0  [ 5.003103 4.26902 5.490771 5.009678 4.816557 5.550972 6.654592 4.699082 5.354624 6.049454 5.722905 5.962405 4.83324 5.298341 3.701649 7.922744 4.301377 3.826838 7.225377 2.880377 6.993778 5.937332 4.139573 5.826852 2.80574 3.954834 5.550472 5.207564 5.15624 4.056365 5.198665 5.123875 7.030282 5.714133 5.287498 4.701409 5.398525 5.4791 6.179475 6.776947 6.219853 5.461426 8.214607 5.65397 5.877307 7.161187 4.996755 2.772402 4.152543 4.317125 5.199507 3.441176 7.360046 5.750943 4.34622 7.177625 5.424381 5.329253 4.344356 6.02981 4.935112 6.532747 6.599323 5.076278 4.55931 3.985703 5.166071 4.541808 5.866226 6.009299 4.704864 5.599813 6.495693 4.630382 5.485986 5.859106 5.508111 4.464426 6.63867 5.131722 6.058872 6.526453 3.192256 5.960813 4.51606 5.244903 5.298092 4.968756 6.034038 6.494435 3.401093 5.426404 6.176685 6.027587 7.161178 6.840603 3.680619 7.615306 5.571909 4.661419 5.440624 5.288576 6.187545 5.780937 6.234022 4.680111 5.561534 4.775687 5.236523 5.606663 4.752653 5.168435 5.193849 5.761703 6.046978 4.055729 5.865177 4.912793 8.184773 5.2519 3.436153 4.931221 4.275527 7.815835 5.706535 6.31315 5.809532 5.704089 9.587837 5.128452 6.000474 5.199286 5.199397 4.157048 4.846678 4.490556 6.377116 5.485816 4.870223 3.693986 6.025433 5.446221 6.050685 4.489819 5.436813 5.696068 5.204146 4.402521 6.1677 5.364249 4.806838 4.760474 6.044513 5.457338 5.641531 5.586628 6.319249 5.209571 4.460598 4.942358 4.525791 3.596452 5.648652 5.288562 5.332731 4.389071 6.258551 4.367601 6.312762 5.92229 5.660926 5.210206 5.286664 5.166101 5.937546 5.034732 4.311436 5.28853 5.222132 5.01634 5.508739 7.03883 6.84852 4.643346 3.803047 5.822194 5.982237 6.094332 5.109934 5.915174 3.570733 5.558973 5.069417 5.633172 6.405877 6.720316 4.377448 4.150079 3.830289 3.905461 5.501133 5.554895 5.12251 4.711361 3.882317 5.075528 5.91855 4.879143 4.501832 3.128419 5.451268 6.221479 4.551829 5.414741 7.238471 4.397313 5.928212 9.323996 5.178414 5.047891 5.412044 3.328619 5.823096 5.937436 4.937856 5.07039 3.795832 7.052123 5.987996 5.151773 5.850681 5.048742 6.552823 4.44832 5.774337 6.899309 3.732215 6.665166 4.987813 4.762415 4.795146 3.971494 4.903508 5.638513 4.356562 5.70118 3.554912 5.30831 4.906116 5.934227 4.618462 5.176439 3.746059 4.232919 4.212199 4.739637 4.950974 4.978966 5.425681 6.274837 5.118892 6.215414 5.397641 4.463713 6.086205 5.003379 5.255078 4.087461 5.82083 4.135315 3.732112 4.98735 4.400763 4.951921 5.771636 8.765078 4.823585 4.903251 6.095938 5.212706 6.380686 6.551784 3.557968 5.151136 6.185698 4.504776 4.310318 6.865854 5.433206 4.696533 4.986702 4.520863 7.150879 6.532907 6.107458 3.513776 4.010897 7.8002 4.681742 5.393867 5.586463 5.987282 5.1668 3.12317 6.269849 4.958999 5.632337 5.370405 5.052557 4.898735 4.021292 4.521205 5.624959 4.946209 5.664763 5.178288 4.896667 5.107058 5.334569 6.806175 5.675681 4.717494 4.675873 6.132846 5.230038 5.156235 5.333299 5.844813 4.24922 3.940366 5.246848 2.211312 5.084578 5.988531 5.816899 6.16348 5.279036 9.045244 7.813664 5.20989 2.27191 7.461792 5.177879 2.814895 4.606879 5.437306 2.621771 5.055691 4.485743 6.75914 5.031519 5.730108 6.04413 7.416986 5.765805 5.7688 5.162096 3.622198 5.403799 5.407538 5.75927 5.227188 5.778269 4.717361 5.120726 5.647875 5.743898 4.468782 5.629318 2.939212 5.969199 4.151091 5.499899 7.005239 4.761503 4.47823 5.512519 5.229322 6.091912 3.018799 4.777589 6.199729 3.126675 4.955566 3.3101 5.409056 5.019971 5.101666 5.597532 5.294465 4.551191 4.522791 2.615752 4.926715 6.49847 8.33885 6.014218 5.066206 3.347137 3.720838 4.844876 4.197051 2.303931 5.332547 5.477015 5.225026 6.098293 5.320954 5.731749 6.212364 5.882873 4.326636 6.502359 4.940458 5.528081 6.695384 5.751867 5.164642 4.994885 6.090706 5.324535 5.496413 3.546087 5.540891 5.119396 5.771438 4.287875 4.009019 5.056974 6.29149 6.202018 5.335988 6.040194 4.347203 4.303916 5.692961 6.0764 6.267058 5.790932 4.539315 4.783216 5.320168 7.386399 4.98562 5.423376 5.489565 6.044168 7.799718 4.45682 5.745781 4.339872 6.173213 5.820665 5.27277 5.22723 4.853395 6.694892 4.970903 4.872618 4.139642 6.262875 6.267637 5.949731 5.266767 4.189825 5.758451 5.018034 3.998678 4.915053 5.543269 4.802128 5.644224 6.375963 4.834105 7.150305 4.936717 4.722907 5.541659 4.578127 6.43803 6.325112 5.159473 6.044861 6.036157 4.925123 7.390505 4.971425 4.403406 5.241499 5.205831 5.455128 5.798634 4.67977 4.118031 5.340234 5.157474 6.294158 5.745519 6.103811 4.944214 4.940281 5.947562 5.622872 5.872458 5.374628 5.061033 4.699289 4.4244 5.417491 4.03686 5.889595 5.684704 4.784689 5.95746 5.327118 7.88834 5.870396 4.654281 3.853778 5.339872 5.917727 6.217816 3.610313 4.489325 5.36333 4.543255 5.445117 4.86464 5.936808 5.407292 6.521833 5.959648 4.368613 4.666119 4.813566 5.992878 2.595492 6.830541 5.143218 5.568823 4.711684 5.106887 4.987479 4.784495 5.376164 6.301142 7.091166 6.461799 4.286443 8.0178 5.173165 5.44163 7.373488 3.277513 5.765435 4.963406 6.041063 5.175424 4.789185 4.882071 6.677114 5.392416 6.076829 5.905041 5.369794 5.890646 5.433256 5.501995 6.930474 5.916588 4.641344 4.855499 5.151755 3.618103 5.07682 5.093241 5.612525 6.21713 4.757583 5.110463 5.371658 3.284102 5.050671 5.878262 4.97397 5.808146 5.177703 5.133651 6.351017 4.906071 3.660125 2.843783 4.980465 5.566979 4.348957 5.675809 6.060147 4.612894 3.2912 5.139393 5.228915 6.234163 4.772537 7.977115 4.704252 6.30438 4.688778 5.41581 6.018745 6.177917 3.002814 5.031979 6.140427 5.026319 4.580066 5.861235 6.198508 5.499073 5.590275 6.833542 7.116504 4.759655 5.030346 5.338824 3.900945 5.390919 4.156915 5.722252 2.879332 5.783765 5.674604 4.44849 7.012223 7.17737 5.424644 6.178699 5.589743 5.683392 3.974371 4.85498 6.951005 6.274963 5.837718 5.692213 5.046655 5.353127 4.684343 6.409489 5.606182 3.732979 4.016659 2.283943 2.977885 6.101575 6.011611 3.925675 6.790238 5.03963 7.142041 6.063316 4.161291 4.647902 5.08893 5.065719 7.01132 5.927106 6.198894 4.326676 4.48768 5.338584 5.956126 7.478791 4.770841 8.08662 4.629863 3.644056 6.372315 4.662852 5.471239 4.415117 6.502024 5.969306 4.564858 5.567766 4.96707 4.791364 4.838083 5.886904 3.924454 5.879238 4.620854 5.255697 5.028405 9.944271 7.886693 4.379269 4.85826 4.093539 5.643464 6.460326 3.556417 5.579944 4.871121 5.13507 4.806992 4.983707 3.158476 6.462872 5.963053 4.975784 5.400337 4.368663 6.220985 5.331465 5.043961 5.625257 5.206645 4.939676 5.192496 5.555013 6.615767 6.37974 4.575028 5.218055 4.282424 5.645178 6.059423 3.477536 5.291846 5.930893 5.98376 6.316299 5.509739 7.052235 4.815477 5.83056 5.972969 6.079059 4.939312 4.228374 3.941596 6.214129 5.928564 5.434257 5.298721 4.083779 7.817846 4.955482 4.517227 5.389041 4.385604 5.277379 4.673069 7.27086 5.288431 5.711966 3.507279 5.93723 6.462554 5.836629 6.143765 4.380731 4.78193 6.894915 5.843492 5.066126 5.195996 5.958856 5.822636 2.911067 2.949071 4.918209 5.232778 5.725379 5.146606 5.837347 5.235719 5.246032 5.590723 3.8108 5.246403 5.567025 2.895787 6.365674 4.276083 5.457565 5.872011 4.659859 6.402981 5.50997 6.819915 5.192093 5.042941 5.01534 5.525737 5.440135 5.671186 5.211385 6.317013 4.140551 7.665102 2.932638 4.143769 5.262577 6.784348 5.135192 4.413329 4.883394 6.34652 5.229459 4.981694 6.07786 6.412926 4.666085 5.635692 4.830383 6.338279 5.04671 5.426694 5.757242 3.790042 5.266279 4.125843 6.41592 4.696838 5.320447 6.246465 7.056704 6.517965 6.245065 7.212534 4.837835 6.193308 7.150536 6.090126 4.538244 3.230078 5.057064 5.569541 6.011599 5.611773 5.951801 5.838353 4.936233 4.969487 7.244045 8.234215 4.874544 5.417221 6.10215 5.585414 5.370785 4.683877 5.239141 4.606764 4.785031 6.360884 5.233673 5.065899 7.992033 5.359968 5.443106 6.860771 5.706005 4.850813 6.275525 4.759323 5.907149 5.3157 7.965297 4.431624 2.73947 3.521825 5.47658 5.906781 5.340955 3.22805 4.863702 6.825333 8.168169 5.663107 6.503589 6.519516 3.848006 5.560094 7.006923 4.587324 5.599173 6.387682 5.257694 5.269861 5.823727 6.087746 5.542592 5.494393 6.071551 5.075352 4.681278 4.957427 2.457508 3.557143 6.22154 6.31896 4.271229 2.634688 4.493583 6.175665 5.699777 5.658967 5.754597 6.120322 5.318814 5.943902 4.618614 4.633247 4.937406 3.535053 4.465997 6.171674 5.149684 4.507232 4.456968 5.674045 5.123303 4.813332 4.591342 4.139599 4.518775 5.361706 5.417063 5.928341 5.207261 3.492456 4.468086 5.820143 6.081544 4.292919 6.611848 3.368901 5.713646 5.517058 5.803982 6.00377 6.548456 5.520121 5.825772 6.078538 4.324531 5.101172 5.085977 6.699056 3.337652 4.68997 4.814444 5.118663 4.173366 6.397637 5.337993 4.743806 4.721145 5.110892 5.841249 5.928135 7.763842 7.265155 5.984512 5.621146 5.985148 3.766594 3.362702 4.796834 5.942318 4.168442 4.082319 4.921896 5.100937 3.302903 4.303394 3.540135 6.799104 5.252091 5.08314 6.50315 6.529836 6.121248 5.113092 4.676165 6.572291 5.24213 6.70259 4.134573 4.950415 5.636243 5.425756 5.392522 5.910629 3.861733 5.004204 4.69203 5.402884 3.933925 5.700537 5.506533 4.646007 5.052443 5.594459 5.158632 4.650782 6.308197 6.406589 4.613859 4.727713 4.718738 7.38262 5.079579 5.097205 6.443993 4.661513 4.219081 3.822029 5.332326 5.196192 5.06552 6.691592 ]
<!EndOfComponent> 
</Nnet> 
