<Nnet> 
<AddShift> 1024 1024 
<LearnRateCoef> 0  [ -0.08545618 -0.0950904 -0.1040722 -0.08753424 -0.1184929 -0.1281773 -0.08815395 -0.09448284 -0.09274054 -0.1403468 -0.2418678 -0.1321487 -0.1135105 -0.1013436 -0.178401 -0.09876912 -0.04033294 -0.1081904 -0.2112367 -0.08228359 -0.08936805 -0.1396781 -0.1043463 -0.06911716 -0.3187418 -0.09910349 -0.1596159 -0.1866736 -0.03656361 -0.1438052 -0.1513419 -0.0794153 -0.1592979 -0.1123926 -0.1014887 -0.1033855 -0.06369507 -0.1222069 -0.1225548 -0.07410332 -0.1703583 -0.08034681 -0.3154772 -0.121392 -0.1832968 -0.05925203 -0.1342229 -0.305777 -0.1105618 -0.09034745 -0.04143235 -0.1000259 -0.04172851 -0.05855387 -0.1475092 -0.1186733 -0.09132399 -0.1304591 -0.104968 -0.1166853 -0.0539393 -0.1102294 -0.1230313 -0.2090563 -0.1197188 -0.03092334 -0.08102794 -0.08944254 -0.08735372 -0.09297083 -0.06501346 -0.2516075 -0.08583514 -0.1216852 -0.1207429 -0.1312603 -0.1130273 -0.1262916 -0.06879662 -0.1510857 -0.1042324 -0.2997724 -0.07125433 -0.1161414 -0.07858881 -0.05982682 -0.1145981 -0.1183533 -0.1210915 -0.09062544 -0.1040414 -0.057578 -0.1406709 -0.05270905 -0.2636731 -0.04951539 -0.08240987 -0.04816934 -0.05428872 -0.1081193 -0.07743669 -0.1678399 -0.1404499 -0.06240412 -0.1188279 -0.06137411 -0.09246796 -0.1055028 -0.09959312 -0.08822013 -0.1388734 -0.09277764 -0.1241565 -0.2792161 -0.1410398 -0.1010018 -0.2994784 -0.1187584 -0.1255929 -0.07375552 -0.06003286 -0.125279 -0.07963549 -0.124661 -0.1970829 -0.1185348 -0.1037317 -0.08803009 -0.1720657 -0.08580077 -0.04826988 -0.1226275 -0.1117566 -0.1515574 -0.2990404 -0.1295379 -0.1171448 -0.1109382 -0.1118876 -0.06750137 -0.11274 -0.1256811 -0.05154328 -0.07247027 -0.1051387 -0.09486398 -0.09595636 -0.09507082 -0.05928019 -0.1190516 -0.07886582 -0.1848077 -0.1310119 -0.07728537 -0.08586729 -0.07319282 -0.08495917 -0.1191153 -0.1383267 -0.0848866 -0.2683578 -0.05473167 -0.096925 -0.05540189 -0.101571 -0.0872749 -0.07664073 -0.1964178 -0.09616454 -0.144734 -0.09123823 -0.1310198 -0.1143105 -0.07489989 -0.1186642 -0.1405492 -0.04360994 -0.1052086 -0.1582601 -0.06370236 -0.1028844 -0.1459589 -0.1292038 -0.02761634 -0.1478628 -0.06565483 -0.08653825 -0.08608551 -0.0420506 -0.1215264 -0.08723737 -0.2643651 -0.06398313 -0.05288904 -0.2699251 -0.06443865 -0.1297487 -0.3111098 -0.07849493 -0.1047207 -0.1533308 -0.1050684 -0.1091419 -0.1388648 -0.1039231 -0.2500513 -0.1227361 -0.1076111 -0.1591936 -0.2160326 -0.07738034 -0.09094525 -0.09750307 -0.05630877 -0.09940704 -0.1260408 -0.1190246 -0.2520486 -0.1144879 -0.08543055 -0.1290721 -0.03385877 -0.1222893 -0.1082662 -0.1171883 -0.1475706 -0.07826631 -0.05678005 -0.2083003 -0.1328571 -0.08795601 -0.1153094 -0.1052509 -0.3305011 -0.09869164 -0.03887816 -0.1054143 -0.1244647 -0.1241373 -0.1068398 -0.06600299 -0.1367591 -0.1165207 -0.05929561 -0.1653194 -0.6527144 -0.1305798 -0.08557815 -0.1149746 -0.04689798 -0.09981251 -0.2545085 -0.09948421 -0.05550796 -0.1043371 -0.05503622 -0.04868352 -0.07584304 -0.09264915 -0.1957642 -0.06581914 -0.318322 -0.07890466 -0.08039953 -0.08072158 -0.08723047 -0.08177123 -0.09560037 -0.1226241 -0.04820966 -0.116034 -0.1127946 -0.1089631 -0.07679205 -0.07265113 -0.1096564 -0.1198537 -0.1263006 -0.06940063 -0.1602347 -0.07846271 -0.05556352 -0.1194569 -0.07750587 -0.06781264 -0.1406066 -0.1841106 -0.05917228 -0.124566 -0.1052567 -0.1056828 -0.1361313 -0.04855218 -0.06884601 -0.1074598 -0.06119245 -0.1107623 -0.1073166 -0.0555705 -0.1691466 -0.1141153 -0.08973673 -0.09372291 -0.02206052 -0.07566182 -0.1277734 -0.08156656 -0.3128869 -0.07639367 -0.06148849 -0.21693 -0.04040135 -0.08665439 -0.1552367 -0.09334324 -0.120928 -0.06238924 -0.07388344 -0.1216016 -0.08105559 -0.1355549 -0.1446007 -0.06000538 -0.07645009 -0.2077051 -0.2108186 -0.1695338 -0.06223127 -0.1677521 -0.1251277 -0.1233695 -0.05950987 -0.06125155 -0.1285367 -0.1326681 -0.07463429 -0.1076543 -0.08288056 -0.1325365 -0.09628487 -0.1024441 -0.08378023 -0.05934868 -0.06756363 -0.1302269 -0.1213656 -0.2969628 -0.08558761 -0.0720349 -0.1295525 -0.0583677 -0.08172943 -0.05933161 -0.161521 -0.07206111 -0.1174937 -0.1222914 -0.1059309 -0.07413933 -0.121441 -0.1714638 -0.1071942 -0.1185251 -0.08780341 -0.09208269 -0.06595985 -0.1318765 -0.110471 -0.06293564 -0.6543187 -0.07563064 -0.08012634 -0.1178205 -0.08970734 -0.06259319 -0.1079935 -0.08480422 -0.2917195 -0.06470191 -0.02297043 -0.1315483 -0.1011958 -0.1168136 -0.121424 -0.1390724 -0.2886727 -0.05095242 -0.1451987 -0.1046039 -0.1176099 -0.06966098 -0.09694608 -0.1401319 -0.1635206 -0.2824614 -0.03509365 -0.1076369 -0.03253036 -0.07091016 -0.03612261 -0.2847161 -0.09381967 -0.09778538 -0.1127035 -0.2333083 -0.08023912 -0.09002954 -0.1082113 -0.1475012 -0.148803 -0.3400277 -0.1061257 -0.07983728 -0.07790452 -0.1391562 -0.07853368 -0.2677971 -0.0647753 -0.03699039 -0.1214067 -0.1048853 -0.1160987 -0.07316142 -0.1167896 -0.131164 -0.09065247 -0.158985 -0.1115877 -0.06935111 -0.11749 -0.05472598 -0.1224255 -0.1079787 -0.1548142 -0.09550244 -0.1058594 -0.09266145 -0.2288716 -0.1360186 -0.09759074 -0.1319813 -0.08591086 -0.08964431 -0.08141195 -0.1374328 -0.09741794 -0.09181366 -0.213077 -0.04891403 -0.1284436 -0.02364931 -0.09173588 -0.05614311 -0.08632074 -0.1154437 -0.0963815 -0.1147548 -0.102922 -0.2209051 -0.1190777 -0.02744404 -0.1242435 -0.09892077 -0.1217814 -0.1105626 -0.1131266 -0.05818456 -0.05030742 -0.1186747 -0.123515 -0.06162808 -0.04642485 -0.0809022 -0.07382531 -0.0480753 -0.3198169 -0.1020398 -0.1205631 -0.06795015 -0.2688072 -0.1070549 -0.08816932 -0.1116398 -0.04516256 -0.1076861 -0.2372201 -0.1917199 -0.08749244 -0.1128507 -0.04235069 -0.1075057 -0.08384662 -0.06950222 -0.0851486 -0.1460643 -0.09715003 -0.08371419 -0.06689321 -0.08692181 -0.1055047 -0.1460617 -0.08172037 -0.0506865 -0.1116849 -0.04978591 -0.07757217 -0.09434825 -0.1839829 -0.1048678 -0.08294939 -0.1271535 -0.1145204 -0.1104745 -0.1279563 -0.1343786 -0.07377124 -0.0398339 -0.05957239 -0.1207579 -0.1019433 -0.1360411 -0.09680669 -0.09993885 -0.1389027 -0.1422615 -0.1009148 -0.0663372 -0.1504293 -0.07948186 -0.1148336 -0.2636147 -0.05424953 -0.08888181 -0.0757171 -0.1307766 -0.08075936 -0.2942633 -0.03165729 -0.1465571 -0.07193829 -0.1583203 -0.1245754 -0.1234916 -0.08838912 -0.1001713 -0.05875513 -0.08164498 -0.04928137 -0.1246486 -0.1406082 -0.08826114 -0.1643652 -0.07458879 -0.158492 -0.08997427 -0.1527985 -0.1128093 -0.09474356 -0.1956219 -0.06828651 -0.06024349 -0.06231242 -0.09490424 -0.07799209 -0.1206125 -0.1088766 -0.1100176 -0.2296454 -0.1009683 -0.03864709 -0.09588537 -0.07117543 -0.09169473 -0.1081286 -0.05780645 -0.1611527 -0.06999733 -0.07466535 -0.110819 -0.1251605 -0.1619423 -0.02389937 -0.08149921 -0.1144411 -0.1092185 -0.112458 -0.1125008 -0.08925761 -0.1659095 -0.1304558 -0.08977125 -0.1185014 -0.1325307 -0.154852 -0.08840455 -0.2115065 -0.05728807 -0.1000718 -0.07840431 -0.04170205 -0.1204598 -0.05054059 -0.1323414 -0.104678 -0.1972085 -0.1583654 -0.1364711 -0.09931295 -0.1722905 -0.06341726 -0.3042341 -0.1340337 -0.0528114 -0.07246722 -0.06005517 -0.1418042 -0.0982334 -0.2124842 -0.09235282 -0.06128971 -0.1202398 -0.2448841 -0.1202122 -0.1231979 -0.1082992 -0.09313814 -0.09108886 -0.1069094 -0.06126637 -0.1029532 -0.188277 -0.1064848 -0.04227842 -0.1654896 -0.1155098 -0.1024024 -0.1197378 -0.1102569 -0.114363 -0.07286526 -0.09557663 -0.1139156 -0.08895963 -0.284696 -0.1478369 -0.1007707 -0.08705338 -0.05345258 -0.1367744 -0.1560704 -0.05367955 -0.08774605 -0.1080612 -0.09295268 -0.1092204 -0.1309842 -0.08865572 -0.08776552 -0.1416795 -0.08646715 -0.1076817 -0.148948 -0.1229829 -0.09599163 -0.1591572 -0.1101473 -0.1300899 -0.07923797 -0.09923407 -0.1348401 -0.09501622 -0.06830642 -0.09506836 -0.09353299 -0.0506593 -0.03251428 -0.08993941 -0.09156867 -0.1185032 -0.08661109 -0.09915655 -0.1640556 -0.1405599 -0.1113726 -0.07786002 -0.1015073 -0.2147151 -0.1019767 -0.1596879 -0.1055468 -0.08720697 -0.1720839 -0.09515359 -0.2686402 -0.1408507 -0.04275215 -0.04379795 -0.1112863 -0.07885706 -0.1061704 -0.1438368 -0.05862451 -0.04686067 -0.1382677 -0.1038691 -0.0622678 -0.1515194 -0.05785597 -0.05429145 -0.2096967 -0.04230371 -0.09168439 -0.1055516 -0.1155615 -0.1181669 -0.1154073 -0.04707542 -0.08250909 -0.1312533 -0.2098784 -0.06737203 -0.09541136 -0.1044912 -0.04273813 -0.1261156 -0.0638164 -0.1668733 -0.1290781 -0.05102863 -0.1366442 -0.08465666 -0.09593842 -0.2841566 -0.1211743 -0.1247259 -0.1008302 -0.05758643 -0.04272319 -0.1685777 -0.2291455 -0.1116359 -0.0398961 -0.06938925 -0.1069188 -0.03983624 -0.06373157 -0.1502134 -0.1021396 -0.1041578 -0.08189565 -0.1211357 -0.2235069 -0.1001546 -0.05809287 -0.1016082 -0.137327 -0.06819355 -0.09286676 -0.05410487 -0.09431351 -0.07743759 -0.1785563 -0.08015876 -0.0948436 -0.08878636 -0.1187561 -0.08827074 -0.1083859 -0.08159803 -0.08648151 -0.09144127 -0.119413 -0.04171115 -0.1230957 -0.05225326 -0.06597964 -0.1267791 -0.1159374 -0.08600044 -0.122816 -0.06062889 -0.1208004 -0.04655545 -0.1057326 -0.3083013 -0.05447159 -0.08761589 -0.1272595 -0.07616217 -0.1375567 -0.02676664 -0.1291553 -0.06412113 -0.1315893 -0.04926387 -0.148259 -0.1032777 -0.1281208 -0.07192412 -0.1496298 -0.09427771 -0.03396992 -0.1289259 -0.07999396 -0.11567 -0.02211049 -0.06841848 -0.1300569 -0.1276491 -0.1367975 -0.05803043 -0.1439897 -0.07438385 -0.1205825 -0.09953071 -0.1301377 -0.134248 -0.07774711 -0.08781443 -0.05197017 -0.1710489 -0.06992212 -0.04569847 -0.1572437 -0.1675114 -0.1120003 -0.1148433 -0.2227221 -0.04763373 -0.09460502 -0.05224905 -0.1564649 -0.08039385 -0.1073219 -0.06078096 -0.06864443 -0.0866935 -0.1333932 -0.1223823 -0.07640144 -0.1701914 -0.2384609 -0.1019102 -0.06217807 -0.1356593 -0.1230623 -0.1020974 -0.07767275 -0.1416007 -0.1902419 -0.05956949 -0.2060724 -0.2609629 -0.1297531 -0.1959878 -0.03772233 -0.1170163 -0.09654476 -0.2173587 -0.1315884 -0.1118189 -0.05497505 -0.04887128 -0.07753615 -0.1466477 -0.08874316 -0.2859742 -0.0881257 -0.07097409 -0.157026 -0.09250194 -0.03459944 -0.07872785 -0.1066175 -0.1375155 -0.09451971 -0.07673865 -0.1390329 -0.1121637 -0.1491499 -0.08044176 -0.1507683 -0.1078803 -0.06164357 -0.1352944 -0.05193996 -0.06477565 -0.08962078 -0.1380271 -0.03941792 -0.0710959 -0.08574781 -0.124347 -0.1808209 -0.1122872 -0.1547312 -0.06842903 -0.08900487 -0.149525 -0.113459 -0.1411663 -0.06279965 -0.12741 -0.2591979 -0.1310633 -0.1462881 -0.2089049 -0.1127811 -0.1522561 -0.1522545 -0.09975727 -0.1613345 -0.05575175 -0.06362388 -0.09588331 -0.1623087 -0.1290392 -0.06444953 -0.1651924 -0.1005824 -0.1284337 -0.08768333 -0.08619856 -0.1341991 -0.08201685 -0.09521949 -0.1336997 -0.1033316 -0.1091135 -0.1384171 -0.1472573 -0.09903923 -0.06816947 -0.05970578 -0.09553823 -0.06281318 -0.1302874 -0.1813451 -0.2023626 -0.1155463 -0.1224885 -0.1354206 -0.2047306 -0.175897 -0.06093994 -0.1090508 -0.1185931 -0.1371073 -0.09652519 -0.09731934 -0.0582813 -0.09791528 -0.1321189 -0.1022446 -0.05725236 -0.1016433 -0.07384714 -0.09497967 -0.1356694 -0.06389535 -0.1395025 -0.1161959 -0.1075303 -0.1349426 -0.06071063 -0.09947293 -0.04204315 -0.2499495 -0.1216574 -0.07066312 -0.1201174 -0.1073917 -0.06401315 -0.127175 -0.1155978 -0.1699815 -0.3295111 -0.06869546 -0.05123857 -0.1206873 -0.1031098 -0.02691812 -0.319268 -0.1496109 -0.0852227 -0.06325354 -0.1462751 -0.1035306 -0.09196721 -0.04780313 -0.1153483 -0.09594669 -0.1185521 -0.1051565 -0.2009431 -0.116712 -0.0682066 -0.1222603 -0.0668249 -0.1061427 -0.08386657 -0.02247648 -0.1018398 -0.08120062 -0.05320067 -0.1002977 -0.03044196 -0.09471583 -0.1041706 -0.1202308 -0.03604195 -0.2930629 -0.1519817 -0.1318263 -0.1734013 -0.04143045 -0.2156754 -0.1334468 -0.06067944 -0.06024583 -0.08311725 -0.1410916 -0.1267643 -0.06041765 ]
<!EndOfComponent> 
<Rescale> 1024 1024 
<LearnRateCoef> 0  [ 7.042428 5.508412 7.49162 5.628717 4.742296 6.142757 7.016571 7.411237 8.341137 6.295491 3.141687 5.288878 5.08846 4.411216 3.87262 7.621817 7.085658 6.518102 3.012738 7.074643 6.844746 6.483035 7.250247 6.919759 2.715607 8.373358 4.764543 4.985445 7.881709 4.682046 5.323658 5.33237 5.435813 5.871918 7.598105 7.029044 6.301157 7.065943 4.303587 4.847204 3.204381 6.73735 2.596128 4.948199 4.393072 5.317197 5.35265 2.381567 5.351409 5.931871 7.050471 6.359582 9.812361 7.9063 5.61667 4.133029 6.502667 6.67451 5.552571 4.851799 6.053547 5.514733 3.729455 4.628404 5.746628 8.584758 6.737978 7.42182 7.531002 6.308193 5.842331 2.992055 6.55163 6.317587 7.469927 5.242192 5.450802 6.089638 5.942338 4.316917 5.804373 2.663399 5.796156 4.91716 8.571879 8.908144 8.284037 4.110479 5.419331 6.189581 4.130409 8.445817 4.486425 5.830922 3.319629 11.81435 7.363854 6.447734 10.59083 7.116799 9.048661 5.159868 4.724505 6.721553 4.273768 9.055474 7.490523 5.708013 6.836429 7.791907 5.487367 7.578034 6.249624 3.042878 4.518935 6.451617 2.779826 6.563412 6.479094 7.011107 6.441298 6.892373 6.022462 5.031412 3.667202 6.901727 5.105042 10.19165 5.1834 7.085176 8.346732 6.175655 7.279579 3.766428 2.812399 6.229383 6.563013 6.430727 5.632686 7.081335 6.10979 4.082082 13.25274 6.858618 5.675666 6.857975 7.831657 5.301352 5.676876 5.57453 6.309498 3.967886 6.185223 4.952202 6.127431 8.382306 7.74151 6.547977 6.253036 5.554545 2.638777 6.958134 6.66381 6.576937 6.757261 5.652209 6.087448 4.094225 6.564475 5.643555 7.885546 6.295025 7.19473 5.717001 6.995937 6.372227 7.536942 6.074566 4.227915 7.485271 5.705287 4.959615 5.221435 8.772645 3.576146 5.945528 6.822546 6.615431 7.112763 6.394227 6.961205 2.970857 9.067846 6.715696 3.015663 5.971275 5.438286 2.77396 5.073119 6.933589 5.061539 6.490272 4.59347 5.68401 5.347305 3.22764 5.518976 5.211908 4.637116 3.030608 6.380545 5.128876 5.545551 6.143108 5.839994 6.618451 5.926693 2.790374 7.101145 5.75007 4.440261 9.681769 6.208232 5.349517 4.789012 5.90632 5.455358 6.590176 2.934268 5.033266 4.79909 5.902936 7.010793 2.335158 4.276331 7.433514 7.912677 5.272129 7.126356 7.140669 6.251102 6.284364 7.199603 6.922473 4.628291 2.316289 5.828669 5.690505 5.625385 8.922837 5.770584 2.952332 6.710935 6.261733 6.285119 6.661892 6.35592 4.688809 4.264267 3.635453 8.668012 2.77809 5.15238 7.075416 6.178409 6.125542 6.548072 8.332577 5.395363 6.426513 5.511378 6.854563 6.056398 6.712814 6.818822 4.615395 5.461232 4.355517 7.47568 4.047265 5.981264 6.579721 3.712439 7.823626 5.32843 6.70754 4.768785 7.99838 5.176991 4.805751 4.001742 6.225832 6.275823 7.822855 7.314515 5.257112 3.989099 6.465874 9.532533 4.562706 5.68771 5.899094 5.25693 9.307468 7.295756 6.065404 7.469931 2.75498 8.501949 5.276179 3.095716 8.595194 8.66223 4.786014 8.150574 7.292471 6.171919 7.411241 3.837372 7.447103 5.670675 4.915739 6.082955 7.626573 3.010498 3.578363 4.321527 5.935404 4.687975 6.257006 6.675446 7.390749 5.699179 4.589524 5.17486 6.145521 5.263319 6.252506 4.645115 7.559767 5.474138 5.209188 6.290011 6.428977 4.691032 5.958479 2.748514 7.603978 8.316815 5.323022 6.027525 5.843606 5.716273 4.967556 4.938574 6.052308 7.140653 5.226626 7.754744 5.560278 4.652039 5.306111 6.276278 5.672319 7.251049 5.273053 5.84148 7.633952 8.123787 2.351253 8.136331 7.283125 6.811793 5.37295 8.50145 6.542328 6.364426 2.465454 7.95667 10.52353 5.864299 5.833317 5.158335 5.44682 7.077287 2.973253 6.25951 5.451271 6.136227 5.681772 6.169029 5.634084 3.96901 3.775311 2.945191 8.224127 5.440159 7.161165 6.396614 6.942411 2.686796 6.58687 5.338455 4.353665 3.101132 6.120177 6.195461 6.282185 4.921837 3.865314 2.745541 7.10891 4.677722 6.428015 5.978598 5.239729 2.911333 5.489476 8.100476 5.166341 5.912363 6.420048 8.235297 6.703064 6.149987 6.115291 4.974657 6.57247 8.012312 5.527195 7.610472 5.658956 3.857058 4.107542 7.032447 4.428445 6.770499 3.080973 5.346171 7.825711 6.250159 5.779492 5.943082 4.73208 5.846732 7.919039 7.594893 2.974787 11.02821 5.347322 8.991845 6.761172 8.643105 8.470789 6.540927 4.878345 7.445045 6.073901 2.900603 6.094573 8.525943 6.241321 6.358991 6.998772 6.964428 6.187772 8.6 7.217834 5.359362 5.545163 7.241062 6.830835 7.279809 8.092103 6.553329 2.334214 6.09893 6.85548 6.818673 3.221312 6.118991 7.879149 6.968266 6.963776 6.951456 3.293432 3.555305 6.249727 6.255205 6.580777 5.462495 4.485718 8.080091 5.111315 5.655682 4.402878 6.186508 8.211311 7.900298 5.436239 6.475163 5.258097 9.149178 7.124956 6.177088 6.250146 4.683846 4.542327 6.114004 6.24155 4.653654 6.772699 7.067896 5.877483 5.059224 7.266387 7.357398 6.601538 6.744747 6.97755 4.984977 5.466519 4.233411 3.602077 6.059331 5.849905 5.833132 5.510129 5.868941 5.258435 2.814191 6.357033 8.090365 5.441147 4.149947 8.865978 2.655944 9.627929 4.388159 4.849527 4.100458 6.346537 7.120446 7.434806 6.221465 7.232735 6.853845 6.230795 5.186815 6.27264 7.030784 3.99524 7.622652 4.926775 5.695765 4.527398 6.508367 5.827404 3.0218 7.265283 6.865769 5.621554 7.114937 6.879912 4.188877 6.621621 5.868874 3.103727 5.35993 8.794111 6.743045 6.47909 6.182611 7.660762 6.9175 3.781473 6.180226 5.573225 6.576398 5.658531 3.655504 9.345053 5.23239 5.950438 6.746371 3.922419 5.001423 6.202229 4.485327 6.314502 8.159122 5.669185 6.238195 5.741507 8.61543 3.761881 6.672222 6.949073 7.467647 6.936586 4.638217 5.932919 6.505744 4.320887 3.531591 5.705427 6.43155 5.523255 4.225858 4.980365 2.414977 6.035907 5.848365 5.471708 6.078404 5.720733 6.309117 2.929855 5.514462 7.702223 5.613233 2.818744 5.626102 5.620099 4.162278 5.817168 5.758538 7.257878 7.154927 7.334279 3.551075 5.887457 7.918836 3.401823 7.003694 5.871573 6.153346 6.171683 4.130236 6.465272 4.583323 3.973308 6.636211 2.811386 4.636762 5.698281 7.096943 7.426755 3.654127 4.437231 6.941607 4.237175 6.579678 5.951039 6.826311 6.602376 6.393193 7.794673 4.848781 7.369866 7.243867 3.607087 5.70254 8.22161 3.738664 7.771484 5.056259 7.48751 4.653547 5.629058 6.280365 6.034437 6.358137 6.657969 6.479907 8.430266 6.369304 5.932431 5.649383 5.780344 4.004393 5.34978 5.564704 5.422553 6.320278 6.157753 3.18673 4.153314 4.167636 7.290491 8.937519 5.052927 5.817988 2.811137 4.981596 6.591133 7.028138 7.104922 5.651079 4.570851 3.457529 8.22734 6.925106 3.445215 5.00202 5.318426 5.766309 6.80189 7.418472 4.066039 6.934298 6.75435 6.728132 6.344057 5.963704 6.483782 6.328906 6.499366 5.411155 3.319707 5.613111 4.695199 6.59497 7.604311 4.166264 6.565007 3.887257 5.877919 8.287178 6.897063 7.768324 7.065629 2.77495 5.527102 6.434711 7.083041 6.449108 7.30016 3.910745 3.698575 3.745954 6.663359 7.097275 5.813929 6.92519 8.240558 5.739211 7.542844 4.026747 6.340518 6.873536 3.134662 8.945495 5.131374 7.561244 6.31096 5.610045 6.290398 6.727094 7.314113 5.103508 3.346924 4.718571 5.203922 6.623673 6.846251 7.585624 5.148894 6.723983 6.714227 4.829348 6.260278 6.831599 6.460616 6.394014 6.538763 6.695107 6.419921 8.472072 5.407876 6.124375 6.607961 7.184753 5.791786 2.909462 6.116703 5.946996 5.094114 5.230531 5.787617 8.894059 5.845544 5.407676 6.179239 7.213188 5.505409 8.468715 6.570871 5.672439 5.077732 5.936405 8.043596 6.172173 6.151807 5.569841 9.10622 5.680496 5.945115 4.848711 5.604204 6.740938 6.540316 5.07889 5.746154 5.78968 6.059324 4.702562 7.060679 6.867149 7.924098 4.80578 7.709933 6.635351 4.967307 4.971096 7.136246 3.94704 2.880926 6.51745 4.271868 6.084125 4.108694 6.619548 5.897061 6.790727 5.271627 6.292697 5.963925 4.581378 5.954695 4.948968 2.935099 7.385294 8.978292 5.02281 6.637186 5.437597 7.769035 5.493951 3.727932 5.643875 3.259776 3.181853 3.78486 5.271012 7.467066 6.439137 7.60043 3.613375 6.12969 4.826915 8.955894 7.414314 7.907395 4.492674 6.482487 2.791476 4.531726 8.521699 3.809981 6.214147 8.669756 6.585367 6.187 5.860457 5.982002 6.557716 5.608325 5.246228 5.546118 9.609613 6.0398 6.582916 6.058351 4.475296 5.837437 7.021708 4.719128 4.8345 7.92996 8.785411 5.353672 5.048988 3.130065 6.694842 3.865169 9.136191 5.918808 5.184847 3.696497 4.365855 6.40168 6.511632 2.751049 5.040713 5.284367 3.711062 4.996044 5.954178 3.736454 6.674373 4.23651 6.664907 7.172606 4.589915 4.634029 5.107278 7.573781 5.449894 4.603745 6.987481 7.392034 7.782992 6.350787 7.324643 8.346163 4.494653 5.493019 4.417332 5.002811 5.218477 6.030794 5.144029 8.652287 5.959787 6.338732 5.85273 4.384949 2.951652 6.433101 4.366983 4.723176 4.143901 4.566303 5.259537 5.141167 5.434713 5.982352 4.989964 7.10243 6.448439 5.520331 5.732968 7.13733 5.532071 7.120432 5.420427 7.468397 6.246995 5.345451 3.874091 6.653966 6.145756 6.292571 7.497712 4.687915 7.691901 2.890427 5.156513 6.947413 5.657234 6.377542 6.933889 4.102482 7.237936 5.326926 2.280452 5.76735 7.649314 6.936236 6.123132 9.459771 2.807248 5.978099 6.290112 9.399351 5.362812 5.221088 6.00491 6.331617 6.537818 8.071722 5.127182 5.797992 3.774896 6.404772 8.607398 6.396959 6.093609 7.082625 7.176444 9.286967 7.276046 7.835332 6.894957 5.340986 8.05088 7.587633 6.427174 6.72483 6.826712 3.009475 4.408478 6.667443 4.697974 7.580537 3.263426 5.778687 7.964944 5.724167 4.745416 6.019937 4.099373 6.713394 ]
<!EndOfComponent> 
</Nnet> 
