<Nnet> 
<AddShift> 1024 1024 
<LearnRateCoef> 0  [ -0.1506346 -0.1446373 -0.1200838 -0.1325174 -0.1084277 -0.1307506 -0.09735093 -0.07164696 -0.1163925 -0.08055988 -0.1032418 -0.100047 -0.1257366 -0.1168042 -0.1348387 -0.07843189 -0.1542985 -0.07497601 -0.143624 -0.1201717 -0.1641323 -0.1144581 -0.1096326 -0.07895417 -0.1340701 -0.09496415 -0.1237299 -0.0665942 -0.1402703 -0.07491468 -0.07126043 -0.1248312 -0.1225631 -0.074792 -0.1422868 -0.1210529 -0.08881752 -0.1050231 -0.09791302 -0.1219354 -0.2221812 -0.1449969 -0.1309003 -0.07154526 -0.102812 -0.1207783 -0.1269693 -0.08603108 -0.1045134 -0.1066822 -0.1229397 -0.173528 -0.1750142 -0.08133944 -0.117133 -0.1163099 -0.1078538 -0.1104836 -0.11664 -0.1206207 -0.1057778 -0.1425759 -0.2605691 -0.08257789 -0.1406797 -0.1371205 -0.08333828 -0.1170728 -0.1045487 -0.1275534 -0.1215029 -0.1016274 -0.1246622 -0.09166155 -0.122904 -0.1368149 -0.09119417 -0.1449459 -0.1135512 -0.0997851 -0.1101042 -0.04243233 -0.106928 -0.09177643 -0.122194 -0.0936774 -0.1193079 -0.1082604 -0.1029658 -0.05695242 -0.1538134 -0.1128851 -0.1060181 -0.1315998 -0.07700802 -0.1008206 -0.1169669 -0.1408939 -0.1261574 -0.1107884 -0.1404628 -0.07799934 -0.07961908 -0.1139904 -0.142691 -0.1070759 -0.1157446 -0.154976 -0.1041197 -0.1001116 -0.1506238 -0.1212029 -0.1131535 -0.08549839 -0.1529152 -0.1544532 -0.113814 -0.09677482 -0.1091441 -0.06604958 -0.1048183 -0.1168528 -0.1363753 -0.1119334 -0.1286892 -0.1119955 -0.1001108 -0.1132553 -0.1260802 -0.1058612 -0.1521547 -0.08715829 -0.0859666 -0.1234559 -0.133727 -0.1018136 -0.09066866 -0.0668285 -0.1251978 -0.1029091 -0.09050306 -0.153939 -0.1113078 -0.1512846 -0.1399744 -0.1230057 -0.1535662 -0.1098969 -0.08123147 -0.08339237 -0.104109 -0.2495362 -0.1213328 -0.1123971 -0.1557588 -0.09299815 -0.1242957 -0.08248924 -0.09983638 -0.2451355 -0.1177387 -0.1189538 -0.09756887 -0.1285267 -0.1106549 -0.1206695 -0.1040194 -0.1129583 -0.09574034 -0.1449221 -0.1213418 -0.1066398 -0.1451353 -0.1328542 -0.1140576 -0.1327722 -0.09480616 -0.1169807 -0.1492748 -0.0799195 -0.1643249 -0.1478799 -0.09849576 -0.1376004 -0.139892 -0.09064356 -0.06512673 -0.155229 -0.08777348 -0.1364865 -0.1164217 -0.2355282 -0.1206044 -0.08992456 -0.1005232 -0.08731622 -0.1085587 -0.1013968 -0.2610717 -0.102279 -0.0937755 -0.08009757 -0.09942342 -0.1246997 -0.1567286 -0.1120813 -0.1200597 -0.1123306 -0.09370171 -0.3670909 -0.1272136 -0.09262104 -0.1244121 -0.145191 -0.1364617 -0.1815301 -0.08788366 -0.1201609 -0.1817643 -0.1272939 -0.1053162 -0.1100331 -0.1141489 -0.140801 -0.1352343 -0.07327487 -0.1672177 -0.2111466 -0.1040616 -0.1814532 -0.1085446 -0.1122905 -0.1303215 -0.1091383 -0.1230272 -0.1330373 -0.09333674 -0.07584385 -0.1445201 -0.1093022 -0.1267727 -0.1008182 -0.1111925 -0.1147263 -0.09854821 -0.1054416 -0.1383453 -0.1326421 -0.1524911 -0.08756624 -0.1117832 -0.168511 -0.1011292 -0.156871 -0.1241607 -0.0948618 -0.1041907 -0.08925945 -0.09957496 -0.08526748 -0.09875251 -0.1427637 -0.137748 -0.08504369 -0.04048335 -0.09349828 -0.06772134 -0.1099712 -0.1624209 -0.1243709 -0.08580926 -0.07544325 -0.08334355 -0.05698681 -0.1346946 -0.1082237 -0.1231544 -0.09939219 -0.126316 -0.1455141 -0.2623632 -0.08703403 -0.1018449 -0.1494426 -0.2306725 -0.04471331 -0.1339617 -0.2847016 -0.1311565 -0.1452314 -0.1549411 -0.1265159 -0.1233311 -0.124709 -0.1717596 -0.09037287 -0.1217432 -0.1022328 -0.1113356 -0.1081305 -0.1496501 -0.0857355 -0.1059745 -0.09122398 -0.1484567 -0.1455497 -0.08025793 -0.1257988 -0.1142499 -0.142623 -0.101294 -0.08961158 -0.09187121 -0.05340428 -0.1207263 -0.1089454 -0.1422284 -0.1734944 -0.09052321 -0.416391 -0.1066437 -0.09397693 -0.1309178 -0.1271832 -0.151702 -0.09409976 -0.09435648 -0.1192334 -0.1614457 -0.1035319 -0.09225701 -0.1017589 -0.1867108 -0.1298779 -0.1173449 -0.1407868 -0.07898504 -0.08973718 -0.1493213 -0.142992 -0.1374004 -0.1856892 -0.129266 -0.1464687 -0.1106859 -0.185555 -0.1453341 -0.1036535 -0.122564 -0.1005574 -0.09775647 -0.1237797 -0.1207436 -0.1431712 -0.1233681 -0.1272081 -0.06904228 -0.09060903 -0.1144551 -0.1216708 -0.1283745 -0.1338581 -0.1463515 -0.1152023 -0.09658771 -0.1043611 -0.1220302 -0.1157848 -0.1225428 -0.3830863 -0.05105612 -0.1075223 -0.08302109 -0.1213203 -0.09155636 -0.1484511 -0.1425614 -0.1163357 -0.148815 -0.09762111 -0.08895302 -0.1290605 -0.125356 -0.191603 -0.1131813 -0.2069595 -0.1170951 -0.1111045 -0.1187829 -0.1123809 -0.1303213 -0.1148409 -0.08680815 -0.1075495 -0.09895926 -0.1541745 -0.1544119 -0.1096284 -0.1257316 -0.08774457 -0.09835095 -0.09723797 -0.1489265 -0.1182362 -0.236666 -0.1311579 -0.0616752 -0.09478244 -0.1519545 -0.09404574 -0.09506438 -0.1094755 -0.1499777 -0.1191755 -0.0803317 -0.09551302 -0.07050505 -0.1575457 -0.09794709 -0.07996264 -0.1029178 -0.1334818 -0.09586574 -0.06658474 -0.1189344 -0.1032244 -0.09519449 -0.1271189 -0.12919 -0.1078731 -0.1413367 -0.09250113 -0.1056505 -0.1180312 -0.08797313 -0.1302985 -0.143183 -0.09152017 -0.1168617 -0.06495534 -0.156866 -0.1081638 -0.09510923 -0.1191492 -0.09992079 -0.1068954 -0.1595519 -0.1018856 -0.06436785 -0.08153056 -0.09832278 -0.08085 -0.08558783 -0.1098972 -0.1168444 -0.1195227 -0.1294609 -0.1068984 -0.09171475 -0.1305525 -0.1650947 -0.08795178 -0.1022271 -0.07832076 -0.1421193 -0.3011433 -0.1140826 -0.1912201 -0.1112182 -0.1339841 -0.1657641 -0.2860899 -0.1393171 -0.1819605 -0.1137687 -0.1080891 -0.1225064 -0.143675 -0.1272953 -0.1175785 -0.06991689 -0.0916614 -0.1017897 -0.04903614 -0.1036162 -0.1488132 -0.1051916 -0.131966 -0.05753075 -0.1092185 -0.1488202 -0.08912814 -0.124179 -0.1162883 -0.1007203 -0.1787486 -0.1060773 -0.118632 -0.1089268 -0.09417404 -0.1014182 -0.09082228 -0.1170114 -0.089899 -0.09819855 -0.09650356 -0.1428003 -0.1299676 -0.0611394 -0.1105217 -0.2472287 -0.09797374 -0.1220005 -0.1123071 -0.1708309 -0.1047766 -0.1243073 -0.1293897 -0.1171597 -0.1393564 -0.1581698 -0.1483701 -0.1091953 -0.1043403 -0.1668274 -0.119204 -0.1316981 -0.1399955 -0.112433 -0.06904544 -0.1184108 -0.1158908 -0.06433652 -0.1402794 -0.1194294 -0.1079096 -0.08438205 -0.079592 -0.1149642 -0.1064104 -0.098607 -0.142849 -0.09322831 -0.1328333 -0.1139156 -0.1318171 -0.1118363 -0.160004 -0.08173119 -0.09433091 -0.2062131 -0.1414471 -0.1175489 -0.1297949 -0.07814097 -0.09751128 -0.136971 -0.1899987 -0.142478 -0.1267708 -0.07254366 -0.1089803 -0.05238581 -0.1187982 -0.08478653 -0.09922747 -0.102059 -0.1275848 -0.07036033 -0.0920236 -0.1470118 -0.09567733 -0.115983 -0.1271932 -0.1081742 -0.1467271 -0.2659128 -0.1116979 -0.08297268 -0.1109418 -0.1690467 -0.1061594 -0.1123352 -0.06562961 -0.1460367 -0.1470232 -0.1279802 -0.1278342 -0.03388578 -0.06452427 -0.08073922 -0.08972518 -0.1571466 -0.09121447 -0.06009951 -0.1153694 -0.1020356 -0.1104871 -0.0869332 -0.09209228 -0.1083854 -0.1066911 -0.1097139 -0.05024148 -0.1189547 -0.1077176 -0.1432373 -0.1843576 -0.185385 -0.09054331 -0.04513627 -0.1133213 -0.1278057 -0.08310866 -0.0728361 -0.1512918 -0.08578636 -0.1096993 -0.1046326 -0.12249 -0.1504791 -0.08935359 -0.08947545 -0.06522174 -0.08915951 -0.127276 -0.0937743 -0.1184128 -0.07692476 -0.1313926 -0.1304339 -0.1166403 -0.1761564 -0.09775846 -0.1030772 -0.1216127 -0.08748186 -0.09580243 -0.1046824 -0.1070651 -0.1038075 -0.1031471 -0.1104489 -0.2854172 -0.1093546 -0.1755311 -0.1322745 -0.1291067 -0.1411705 -0.09132769 -0.09648296 -0.1709334 -0.2571671 -0.06206802 -0.1051527 -0.1054943 -0.1777694 -0.07413448 -0.1103277 -0.099248 -0.1298514 -0.1659091 -0.1107473 -0.1587874 -0.1116696 -0.09356675 -0.1158247 -0.09557769 -0.07585766 -0.06019374 -0.1005957 -0.2351354 -0.1121413 -0.1056393 -0.131072 -0.1131198 -0.06639851 -0.1104416 -0.08412053 -0.1826359 -0.139809 -0.1220706 -0.1100997 -0.1147883 -0.1060732 -0.1267424 -0.2077758 -0.2539037 -0.1052142 -0.1047683 -0.1373578 -0.07126913 -0.08833068 -0.3590548 -0.1331673 -0.1191818 -0.09307443 -0.132756 -0.1640107 -0.1775686 -0.155805 -0.1411413 -0.1883243 -0.08792998 -0.2584567 -0.1343034 -0.09539554 -0.1103439 -0.1285776 -0.1195697 -0.09106012 -0.07527759 -0.1344929 -0.1100941 -0.1225379 -0.1323871 -0.09165146 -0.126414 -0.1007615 -0.08069114 -0.1013917 -0.1017853 -0.08082175 -0.1091344 -0.1046732 -0.1441621 -0.130191 -0.08647608 -0.1334735 -0.170896 -0.1552957 -0.1054165 -0.1080707 -0.107514 -0.162578 -0.1104374 -0.08829034 -0.08618752 -0.1252053 -0.1298053 -0.1553832 -0.1556751 -0.1207633 -0.1176953 -0.1199502 -0.1121808 -0.118216 -0.09004749 -0.1003251 -0.1514617 -0.1098373 -0.08646256 -0.1448288 -0.1157536 -0.1693521 -0.1452565 -0.1051315 -0.1020855 -0.1193057 -0.1143548 -0.121483 -0.1533173 -0.1268816 -0.1200957 -0.09568364 -0.1523533 -0.09571366 -0.21323 -0.1677494 -0.10519 -0.1383773 -0.07066756 -0.07742272 -0.1326211 -0.1250997 -0.1337775 -0.09201906 -0.1364841 -0.107782 -0.1381466 -0.1199346 -0.07329829 -0.1669311 -0.1087094 -0.0937589 -0.1290618 -0.1237484 -0.1343722 -0.2058059 -0.09736205 -0.1237967 -0.1677775 -0.3477286 -0.1060774 -0.3724538 -0.1491111 -0.05168319 -0.1097019 -0.09656122 -0.1549037 -0.1025148 -0.1191816 -0.1133182 -0.1114124 -0.06978 -0.09429897 -0.09336165 -0.1026399 -0.07525539 -0.07993207 -0.1319237 -0.05869088 -0.1115109 -0.0994096 -0.1029728 -0.121309 -0.1126977 -0.1043473 -0.09224869 -0.1198581 -0.1193126 -0.1297066 -0.1289265 -0.1103859 -0.08819874 -0.1358261 -0.1064727 -0.1395919 -0.1561297 -0.1017425 -0.08788174 -0.08811988 -0.106809 -0.1804351 -0.1217736 -0.1154807 -0.1440455 -0.08271283 -0.09337317 -0.1085337 -0.09127798 -0.1466437 -0.156377 -0.1128584 -0.08230646 -0.1210779 -0.151354 -0.1397173 -0.1524289 -0.1213551 -0.1394467 -0.1159781 -0.1519008 -0.1683636 -0.1254759 -0.06684659 -0.05544489 -0.1392021 -0.0774448 -0.08030778 -0.1620783 -0.1098513 -0.1005225 -0.1085939 -0.09970918 -0.1221962 -0.3839695 -0.0991703 -0.1041066 -0.1051163 -0.1080942 -0.1681581 -0.2854358 -0.1152405 -0.1603361 -0.1120219 -0.1402839 -0.09244008 -0.1079206 -0.08417232 -0.1221548 -0.09841935 -0.1100629 -0.1227404 -0.119592 -0.1063409 -0.08694401 -0.1071257 -0.1265477 -0.0830121 -0.1384473 -0.06009375 -0.2406726 -0.1369296 -0.1313252 -0.135377 -0.1132804 -0.1092738 -0.1192342 -0.1297422 -0.1685933 -0.1486883 -0.0644685 -0.1232866 -0.166831 -0.06344634 -0.1178646 -0.1303818 -0.1126151 -0.1112011 -0.1153731 -0.07682743 -0.09290751 -0.09649432 -0.05872457 -0.111226 -0.1496271 -0.1220046 -0.1344773 -0.08382479 -0.07455485 -0.09162529 -0.1377682 -0.1087946 -0.1074582 -0.1325421 -0.1138717 -0.1172568 -0.09781625 -0.1034874 -0.1138383 -0.06485788 -0.1061655 -0.1104438 -0.06372638 -0.1260599 -0.08298548 -0.07789246 -0.166736 -0.1464466 -0.1033456 -0.1097216 -0.09765256 -0.1295601 -0.09858848 -0.08620067 -0.1039753 -0.1276946 -0.1383745 -0.1120868 -0.1352943 -0.1343341 -0.1316063 -0.07249945 -0.1429221 -0.1700727 -0.1425975 -0.1669515 -0.1263441 -0.1441962 -0.106206 -0.1425264 -0.1312624 -0.1363224 -0.1005698 -0.1094453 -0.1555128 -0.1364823 -0.1183952 -0.1018967 -0.1550926 -0.1465005 -0.1379781 -0.1089086 -0.1267144 -0.09213267 -0.08289163 -0.100277 -0.1080884 -0.1098151 -0.1162073 -0.1226221 -0.2636076 -0.09490542 -0.0962242 -0.1328886 -0.1214278 -0.09410349 -0.1054167 -0.1540657 -0.09781037 -0.1112287 -0.08810351 -0.1383012 -0.1646554 -0.154121 -0.1644594 -0.1162032 -0.1338595 -0.09458495 -0.1550855 -0.1274441 -0.128901 -0.1241034 -0.05852947 -0.1041477 -0.1124362 -0.08796362 -0.1595521 -0.1239354 -0.1209481 -0.06578322 -0.141573 -0.1300685 -0.1233158 -0.0959729 -0.1388603 -0.1305396 -0.1207409 -0.103835 -0.1148633 -0.1834847 -0.1149918 -0.2232613 ]
<!EndOfComponent> 
<Rescale> 1024 1024 
<LearnRateCoef> 0  [ 4.863413 5.683775 6.342789 5.762253 6.48313 5.367265 7.889712 9.448145 6.223592 8.973736 5.008753 6.781949 4.937753 8.316554 6.654147 8.802245 5.307438 6.04693 6.155153 4.727491 3.961459 4.571207 4.699217 8.968954 6.596846 8.064033 4.463448 9.122235 5.586192 9.929837 7.902984 4.319606 5.688171 7.392926 5.517519 5.895117 7.43828 5.767797 7.769741 5.246569 3.876331 4.8876 5.654362 8.870315 5.898929 5.599635 5.680151 5.83672 5.411567 6.224918 5.422179 3.315959 4.522358 6.451549 5.446725 5.177765 5.982932 6.268777 6.251084 5.080106 4.740511 5.159237 2.83534 6.092888 4.661521 3.726472 7.873511 6.877655 5.962297 4.865599 5.977741 4.223813 5.465613 7.136311 5.922826 4.707082 10.18592 5.530277 7.675832 4.790411 5.858723 6.703108 7.286378 7.798293 4.849723 7.554922 7.216104 6.40276 8.527012 8.924374 3.76677 6.364859 5.580441 6.371097 7.456593 4.884772 6.262888 5.795057 5.898628 5.757944 5.766804 7.974921 7.735706 6.620532 5.275561 5.323775 6.266626 5.363051 7.552765 6.555109 5.37768 6.147255 6.113962 7.004904 4.385989 5.449951 4.032635 5.679724 6.458931 9.233437 4.22743 6.098921 4.502295 6.071087 4.629982 6.180261 5.516646 6.163163 5.166752 6.447016 4.534021 5.511868 9.346699 7.322632 6.002429 4.969818 8.465927 8.954422 6.056818 6.594559 6.877073 4.033695 6.28734 4.199258 4.009256 5.704867 3.497285 7.748644 6.478541 5.595253 5.595294 2.877314 6.757174 6.000856 4.488872 6.226956 6.943036 9.318338 8.105149 3.508861 6.525724 5.444765 5.521684 4.876077 7.770719 7.617092 8.26114 7.36386 5.815372 6.447958 5.518365 6.563689 4.712667 5.826965 3.491669 5.538138 6.61697 4.201441 4.13891 7.171556 3.144153 4.926148 8.486721 4.820904 3.84186 6.586364 6.714486 5.280743 7.322061 5.124129 6.748335 2.718422 3.98614 5.736205 5.843597 8.671675 8.746075 7.712771 2.810656 7.357527 6.00912 5.527903 6.563267 5.94815 3.356427 5.237368 5.271533 5.226201 7.482141 2.194368 5.641745 7.292351 6.13902 3.744404 5.489822 4.51786 7.905933 5.015488 4.729779 5.509063 6.680829 5.513598 5.676284 4.048221 4.866503 5.930112 4.537832 2.971641 5.141932 3.081171 7.705892 3.806689 5.927249 6.446709 5.738128 5.256678 8.001592 6.97186 4.946647 5.599864 5.243445 7.517048 6.583644 5.301049 6.752237 6.215007 5.089821 5.431395 5.901766 7.515905 5.487276 3.823709 5.53772 4.789359 6.042581 6.569167 8.396427 6.821372 4.533947 7.091657 9.227229 4.041025 3.362316 5.647929 7.20017 6.514508 9.986101 5.786232 6.163748 5.279336 8.468542 6.516975 5.50923 9.319762 4.701426 5.170365 6.128448 7.1565 5.688498 5.865616 2.674424 8.5516 5.323493 5.178868 2.907926 8.475334 5.709171 2.849015 5.383275 4.968713 4.723938 5.614287 6.419425 6.167336 4.956872 6.859031 4.720107 7.783787 5.490639 7.002079 5.156778 7.598661 5.453044 5.214027 5.16515 4.307755 8.580488 5.221275 6.409789 5.340783 4.6811 6.886179 7.595381 8.434949 5.887541 7.560006 5.976294 5.212903 4.357681 2.239258 6.476511 7.385806 5.395824 6.287958 4.398168 5.586756 6.750247 6.25655 4.472035 8.23241 7.087568 5.498216 3.609177 5.468726 7.504307 7.389586 6.419178 5.073033 5.614678 4.536397 4.27909 3.531581 6.569876 5.064266 6.949584 4.14045 3.552221 5.240825 5.906168 6.231453 6.395977 4.370025 5.404027 4.22459 4.360443 6.929532 7.630055 7.68027 5.478545 4.396785 4.820385 5.993764 4.51229 5.965412 7.095404 7.250907 5.49652 8.868605 5.73836 2.239976 6.953465 7.296734 8.022257 6.182835 8.561241 4.985619 5.684733 4.518217 3.289034 5.826874 8.59086 5.840409 5.84038 3.25941 7.944356 2.907947 6.246738 5.496657 5.235974 5.619969 5.478463 4.52963 9.039226 4.053054 5.092871 4.924221 3.888142 6.529906 5.501652 6.509483 10.61252 5.239004 5.48066 5.665694 3.443405 5.954009 10.2892 9.234874 4.787102 4.965478 6.282791 4.585116 5.559103 6.183327 8.184889 9.018633 6.884773 4.517672 5.197086 5.009001 6.563498 5.432672 6.165059 6.718836 6.178419 6.750144 5.956846 6.322564 5.225552 5.709165 3.491143 11.00589 7.828035 6.314919 8.47466 5.913121 4.889522 6.153222 6.676227 6.843429 4.976035 6.062903 6.84973 4.208455 7.780506 6.490215 5.53339 7.678807 8.000005 8.084191 4.909697 4.900616 8.570596 5.373538 5.83023 6.782155 4.714534 7.395953 5.833817 5.420846 5.043632 8.459677 6.767223 6.511653 6.433911 2.922971 7.24652 3.545693 4.838606 4.944241 4.3005 3.371579 4.854131 3.528023 5.739569 4.995418 5.422091 5.213712 3.905434 7.157561 7.218945 7.780623 6.251805 7.761887 6.360787 7.104128 6.022811 5.389544 8.355852 6.543344 4.787167 7.343593 5.800234 5.53166 6.66298 3.949763 7.881304 4.918538 6.149935 4.638625 6.270185 6.121158 6.283252 7.454372 5.594173 6.811946 4.664012 6.55327 6.555482 6.868921 2.977741 6.800639 4.585837 5.972825 5.646816 8.855282 6.219741 6.829445 4.936449 5.473608 3.340332 5.44385 5.852417 6.255295 3.474018 4.419917 5.283219 5.565884 6.890979 7.657897 5.599532 6.61736 7.732552 5.140428 5.09815 7.37304 6.929506 8.331536 6.945542 6.254394 7.694672 5.597221 5.435258 5.8245 5.992453 6.161489 4.846966 3.816075 6.609966 6.851952 4.057724 3.943998 5.132349 5.708506 9.039501 7.575459 5.675941 3.242465 4.752988 5.697799 6.090545 5.759618 7.055764 6.846555 8.684618 4.792275 8.013751 5.685423 7.359792 6.989708 5.702659 8.889746 8.453026 5.638749 5.022804 4.960238 2.648575 6.819229 9.301232 6.975267 3.951999 7.761821 5.333834 8.290167 6.004941 5.350167 5.173933 6.143293 8.002764 7.182185 9.556315 5.483549 5.042276 8.206373 7.299294 5.240215 7.483681 5.008184 5.920613 6.674593 7.787586 5.560529 6.443424 8.504235 5.427009 6.691273 5.085244 3.387563 3.632113 6.126803 11.4919 6.550653 3.907645 5.200413 6.543801 4.088833 7.041451 6.062588 7.836668 5.268485 4.745243 4.59893 4.722207 8.551609 5.222233 5.520272 6.096251 5.739834 6.681441 5.995337 3.9525 5.953459 3.397173 5.943268 6.401308 6.54778 8.804529 8.71061 6.143079 6.453386 5.415943 5.176095 4.99859 2.566937 6.047987 3.4033 5.725449 6.06286 5.244496 6.936571 6.841832 3.375241 2.828988 6.591632 6.51977 5.55218 3.725748 6.643369 5.073231 7.585984 5.997216 3.46726 5.748941 4.952111 6.05617 6.251563 5.629417 6.548784 6.599064 7.21842 7.991287 3.526923 7.967552 7.102322 5.999755 7.179022 9.441257 4.322407 5.648099 3.125259 4.997828 5.008962 7.772773 4.682938 4.340113 6.146539 3.391542 2.785681 5.061112 6.632785 5.519851 7.550121 6.976945 2.229428 7.390892 6.742669 6.87908 6.504779 5.39919 4.75303 4.098433 5.068667 3.26334 5.003044 3.115083 4.768746 5.323245 5.794831 5.793386 5.944619 5.46084 7.452474 5.559151 7.882465 5.114987 5.660378 6.436286 4.634151 8.41445 4.833623 5.936351 7.615698 7.753058 5.662031 5.730981 4.479169 4.015702 6.388727 5.324064 3.918916 5.24201 6.645697 6.67548 4.805103 4.102108 5.91175 6.354646 5.793033 4.38489 4.734234 5.357331 5.277451 4.724672 5.039696 5.480494 5.550897 7.600907 5.529849 7.996198 5.21105 6.149759 7.553845 4.642031 8.367194 4.902645 4.025766 6.336538 9.022342 5.66877 7.144058 6.611881 3.676122 7.205287 7.483218 7.166521 4.541608 5.09027 3.054012 3.65077 6.84727 6.144385 8.894985 9.315871 4.845806 5.085795 5.467471 8.087922 4.346464 6.531485 5.30651 5.737349 8.187964 3.501762 8.475556 8.606499 5.365983 6.957344 5.882901 2.864497 6.531487 5.397963 4.378739 2.445658 8.539277 2.335111 5.421276 11.44345 5.667702 6.351471 6.922186 5.427446 4.898962 4.778801 6.557427 9.805234 6.912221 6.960209 5.794008 6.529974 8.497708 5.53058 5.193281 7.572675 6.908816 4.502807 8.253926 4.46185 5.838669 6.835943 5.883326 6.089714 5.187008 5.739377 7.408799 7.787643 5.727917 7.594745 4.847051 5.711885 7.375596 6.695048 8.627271 6.057518 3.987852 4.857694 6.291782 3.650091 8.695268 6.973295 5.787816 6.532555 3.611236 5.355601 6.790939 8.601161 5.669205 4.001091 6.054678 4.603681 6.249906 6.682864 6.163103 4.196455 4.27085 5.661355 6.563903 9.276138 5.112587 5.974297 9.047344 6.636851 3.97613 7.03318 6.37091 5.721952 5.289424 2.41743 8.201451 5.506398 5.571066 6.040529 5.329733 3.030348 5.646769 5.358341 4.675084 5.916454 6.997361 7.757381 5.978268 6.501033 8.543298 4.651606 7.143963 5.465406 3.609214 9.219403 5.323463 5.423474 6.609108 5.779629 5.076835 3.356598 5.587235 6.689669 5.359931 5.575508 5.337544 4.037787 5.791365 3.136129 4.509599 6.157645 5.447134 4.50367 8.347034 6.724656 5.230689 7.300455 5.780775 7.001079 9.688145 6.883506 7.647025 5.142798 7.200876 4.021316 6.197858 4.444827 9.839185 4.568382 4.837834 5.02391 4.78498 5.823407 7.426827 6.232934 6.152386 5.839596 6.306186 6.646673 7.913859 6.829405 5.252439 8.005934 4.968793 10.51761 8.315948 3.488546 5.388865 7.61578 6.53613 8.563557 5.666584 6.618591 4.540269 9.170003 5.440034 5.313828 4.744958 6.094768 6.032413 5.233976 7.114334 4.129382 4.22647 5.88878 4.350173 4.927385 4.600221 4.434294 5.486228 5.540279 4.818118 6.947486 3.965329 5.400821 5.330193 7.801349 6.547686 4.317563 4.416472 5.449956 4.84757 5.952438 8.314744 5.860977 6.012779 5.001113 4.97514 6.960743 5.575949 2.985756 7.935248 6.975064 5.892289 5.776269 5.224204 8.534154 5.712968 6.211946 4.999407 5.988259 4.781794 4.357035 4.505292 4.831745 5.413419 5.666273 7.19258 4.980647 6.965483 6.32074 6.271251 6.667374 4.922187 5.562805 5.965575 5.262715 4.338875 7.539282 7.976024 5.310065 4.347099 7.074817 6.130575 6.263951 5.704021 5.803456 6.266832 6.911939 3.873431 4.87335 2.842187 ]
<!EndOfComponent> 
</Nnet> 
