<Nnet> 
<AddShift> 1024 1024 
<LearnRateCoef> 0  [ -0.01592877 -0.09144868 -0.07253797 -0.08102705 -0.2959526 -0.09078471 -0.07110135 -0.01539829 -0.1205859 -0.08351512 -0.0985792 -0.1205339 -0.0830261 -0.05717952 -0.1360137 -0.09173664 -0.04013695 -0.06422982 -0.09042685 -0.2451134 -0.06346587 -0.09990762 -0.05345049 -0.1205644 -0.02849304 -0.06110349 -0.1081166 -0.05925537 -0.1428707 -0.121631 -0.06202747 -0.1014357 -0.05299998 -0.1603239 -0.01498133 -0.01529789 -0.08646308 -0.09021319 -0.08589077 -0.05139385 -0.08813063 -0.1117651 -0.2438943 -0.05005087 -0.08864633 -0.1298299 -0.05834405 -0.06366481 -0.1071261 -0.1053142 -0.08338411 -0.0490226 -0.1133715 -0.07524446 -0.03569959 -0.1079056 -0.06939628 -0.09305068 -0.05986466 -0.06396354 -0.1002797 -0.08127657 -0.1684237 -0.01550239 -0.01502321 -0.100248 -0.1148872 -0.09635779 -0.06464553 -0.116331 -0.1590577 -0.1580661 -0.0548588 -0.01485137 -0.1405873 -0.1208941 -0.01586847 -0.1209873 -0.06241778 -0.1163541 -0.1103325 -0.2734124 -0.1128422 -0.08902471 -0.1101979 -0.01451628 -0.01572488 -0.06192177 -0.08681728 -0.09639814 -0.1428164 -0.1176781 -0.2627712 -0.05842653 -0.137547 -0.0907748 -0.2021955 -0.07395849 -0.08947989 -0.01558734 -0.08897217 -0.02311367 -0.04922723 -0.2984949 -0.05050849 -0.07535864 -0.09133203 -0.1409804 -0.1707297 -0.07927717 -0.1031291 -0.08016403 -0.2852297 -0.3310411 -0.07396528 -0.05280632 -0.06943419 -0.1399346 -0.1916017 -0.1441653 -0.2988437 -0.01618193 -0.09792402 -0.08502025 -0.06349317 -0.07396195 -0.1104072 -0.08109045 -0.09863206 -0.1018567 -0.04280352 -0.06552767 -0.1329954 -0.06305791 -0.07878288 -0.01499447 -0.2986694 -0.08836736 -0.131808 -0.01570696 -0.03489901 -0.07999879 -0.04565496 -0.08132291 -0.06759713 -0.02369515 -0.0907626 -0.1076195 -0.1187783 -0.06170354 -0.082229 -0.06908869 -0.04945216 -0.1241798 -0.1187776 -0.1045253 -0.01753249 -0.07480134 -0.1395847 -0.07821015 -0.09921549 -0.1156859 -0.1206068 -0.1302128 -0.09898069 -0.09314424 -0.02959507 -0.1194927 -0.2042227 -0.09850998 -0.1133775 -0.105961 -0.1228512 -0.08849005 -0.04413256 -0.1004502 -0.3262798 -0.1250953 -0.09718905 -0.1059592 -0.0403703 -0.06720264 -0.01447054 -0.0593015 -0.073956 -0.1509421 -0.178492 -0.01623761 -0.1168881 -0.08303317 -0.2790537 -0.08430152 -0.06997109 -0.1531439 -0.0859075 -0.06519444 -0.09989968 -0.05494824 -0.2566619 -0.1011245 -0.05622378 -0.1069807 -0.155522 -0.101648 -0.1300401 -0.1087197 -0.08179567 -0.08718076 -0.07427792 -0.1170412 -0.06699004 -0.07914591 -0.02951349 -0.03429741 -0.1042072 -0.08057056 -0.08594374 -0.2742513 -0.0944206 -0.3090628 -0.1187633 -0.06378732 -0.03034624 -0.09316193 -0.05195878 -0.1004574 -0.1414616 -0.05484054 -0.1266098 -0.04163796 -0.07779981 -0.07231038 -0.06550906 -0.0681598 -0.08666207 -0.07457037 -0.01595306 -0.2870262 -0.1036306 -0.1233759 -0.1108174 -0.01566436 -0.08680832 -0.06952595 -0.07079456 -0.08230316 -0.1404026 -0.08774998 -0.01532836 -0.102954 -0.1157544 -0.1636383 -0.08243139 -0.1191895 -0.1050172 -0.07850916 -0.1240933 -0.2676411 -0.06946395 -0.1068641 -0.08725844 -0.08166707 -0.1678885 -0.06655331 -0.1088687 -0.1531863 -0.05510357 -0.1425701 -0.07132146 -0.05688253 -0.01649645 -0.108378 -0.08266014 -0.08382934 -0.1059362 -0.106289 -0.1198393 -0.1352535 -0.09369776 -0.05591061 -0.1078783 -0.1247311 -0.04822113 -0.02050305 -0.07299007 -0.08368564 -0.04321462 -0.09450952 -0.035368 -0.07204945 -0.1063342 -0.01576059 -0.1115412 -0.1213902 -0.08339469 -0.06995223 -0.09368221 -0.05969925 -0.07861845 -0.05336918 -0.05176748 -0.08655699 -0.08669503 -0.1580953 -0.2633519 -0.1004292 -0.09596349 -0.1039047 -0.1723161 -0.03150938 -0.3322282 -0.09620187 -0.08579852 -0.1111617 -0.01970214 -0.1088851 -0.01581941 -0.09492137 -0.08416812 -0.06605501 -0.1325039 -0.0912678 -0.07455073 -0.06061873 -0.06565979 -0.1302877 -0.05249329 -0.1579186 -0.09521387 -0.01589553 -0.108586 -0.0761967 -0.1092246 -0.06109938 -0.07732505 -0.01643157 -0.05933593 -0.02941375 -0.06320869 -0.1205376 -0.1776654 -0.06254286 -0.0423643 -0.07321936 -0.1141247 -0.08422467 -0.03733678 -0.01571149 -0.07957872 -0.0676111 -0.04538101 -0.08919495 -0.07455193 -0.04212494 -0.04092494 -0.09172323 -0.09459925 -0.0658507 -0.07444949 -0.1026756 -0.01555234 -0.06908263 -0.01956405 -0.01463348 -0.1030863 -0.2639758 -0.06460032 -0.07841038 -0.1237647 -0.0982655 -0.09771731 -0.07512148 -0.04998785 -0.09931473 -0.2193433 -0.121654 -0.1020731 -0.09984226 -0.09557167 -0.2023464 -0.09050252 -0.09144349 -0.060869 -0.07926168 -0.102472 -0.1021866 -0.05005454 -0.09171393 -0.08434273 -0.09268299 -0.1270677 -0.1086105 -0.09336459 -0.1063733 -0.2112041 -0.08120085 -0.120934 -0.1147259 -0.09331539 -0.2211196 -0.06038516 -0.09644755 -0.08967672 -0.1235762 -0.08094573 -0.1177362 -0.08756292 -0.06637733 -0.150524 -0.138396 -0.301679 -0.1043059 -0.1935938 -0.1254217 -0.08359953 -0.05616397 -0.1511434 -0.08817686 -0.05151016 -0.05360798 -0.283571 -0.1384169 -0.20172 -0.03590092 -0.08796248 -0.1146249 -0.01548537 -0.06810407 -0.05782821 -0.08914669 -0.0563201 -0.0493693 -0.1044514 -0.104688 -0.0150454 -0.1447328 -0.09750292 -0.2025459 -0.06853243 -0.2731085 -0.05674519 -0.08921847 -0.1270662 -0.05080898 -0.1340514 -0.1314938 -0.05494504 -0.07505146 -0.05165891 -0.1110181 -0.06576668 -0.1116853 -0.2923926 -0.1109389 -0.01618701 -0.04175102 -0.08049707 -0.05442834 -0.07569029 -0.04351188 -0.06331214 -0.1118042 -0.1003264 -0.1318443 -0.1542867 -0.1157638 -0.1034017 -0.1775943 -0.05934012 -0.06539699 -0.08014899 -0.145199 -0.08609078 -0.1111387 -0.07666524 -0.1908161 -0.1518683 -0.09335411 -0.06756169 -0.05096613 -0.08523 -0.08916795 -0.1055669 -0.05493972 -0.01508661 -0.1599759 -0.1197818 -0.1179157 -0.0401304 -0.01966091 -0.06784466 -0.101711 -0.1244001 -0.1334137 -0.1394019 -0.132083 -0.1779449 -0.03730967 -0.1468678 -0.126435 -0.1204325 -0.07089254 -0.0368268 -0.05167715 -0.08241887 -0.121058 -0.0602558 -0.1017174 -0.03322157 -0.08867092 -0.09728666 -0.0367753 -0.01579257 -0.09488922 -0.1308985 -0.09494708 -0.08095888 -0.1000941 -0.1110713 -0.0355101 -0.08748447 -0.05491129 -0.07831234 -0.07759719 -0.01473049 -0.06476161 -0.08965658 -0.05613456 -0.0665497 -0.06431656 -0.09476179 -0.0839845 -0.01477855 -0.1227912 -0.1249417 -0.09177078 -0.6456438 -0.1029132 -0.01642839 -0.01562953 -0.08051695 -0.06639042 -0.09710401 -0.1870274 -0.1507888 -0.07205088 -0.2143178 -0.06615776 -0.02269987 -0.08254879 -0.1042989 -0.1863425 -0.09039569 -0.09432174 -0.09489343 -0.1146685 -0.1677333 -0.1214097 -0.3332021 -0.01594212 -0.08341473 -0.06654049 -0.04508306 -0.1363575 -0.2424928 -0.05148312 -0.05890317 -0.0587556 -0.1397465 -0.2791432 -0.04497857 -0.08710016 -0.07978889 -0.08619954 -0.06354285 -0.07601424 -0.2110699 -0.04780862 -0.015485 -0.2197152 -0.1541516 -0.2428551 -0.08724562 -0.06750713 -0.09134527 -0.05533385 -0.09131594 -0.106928 -0.07600909 -0.05844381 -0.1335408 -0.04410567 -0.01583488 -0.07747692 -0.08709439 -0.06710441 -0.06440424 -0.05980028 -0.04912934 -0.126199 -0.1222762 -0.1112852 -0.03248297 -0.2389876 -0.08533431 -0.1034469 -0.01563998 -0.1987737 -0.09422341 -0.1045803 -0.05819137 -0.05168427 -0.04824961 -0.0856712 -0.06036785 -0.05407295 -0.1486599 -0.1197643 -0.05283023 -0.123252 -0.0793969 -0.08670274 -0.05819888 -0.0942148 -0.07395514 -0.1328817 -0.1203992 -0.1417097 -0.07618277 -0.1153491 -0.1132851 -0.1125384 -0.07373228 -0.2656243 -0.1030951 -0.1346492 -0.1628819 -0.09376974 -0.1319082 -0.1016804 -0.06043123 -0.1085532 -0.09935014 -0.04736829 -0.1399332 -0.04949152 -0.01556927 -0.0663941 -0.05363413 -0.1127995 -0.09006037 -0.07276525 -0.3038986 -0.1973432 -0.1265291 -0.09942983 -0.1133453 -0.1067588 -0.1106319 -0.05257512 -0.1062816 -0.2003474 -0.1187268 -0.08473136 -0.05846811 -0.09894067 -0.09954326 -0.08215995 -0.1016799 -0.08198051 -0.07344497 -0.04625962 -0.05683938 -0.06024808 -0.06024924 -0.0596704 -0.06268573 -0.05735456 -0.06142268 -0.1803446 -0.2268511 -0.1160323 -0.0147864 -0.09355967 -0.07419312 -0.01832668 -0.05298427 -0.0824019 -0.06001237 -0.05037829 -0.06922822 -0.1153694 -0.1005148 -0.1658732 -0.01587415 -0.1072328 -0.04914896 -0.04386296 -0.07910381 -0.05850566 -0.08143884 -0.03692758 -0.1033551 -0.102665 -0.1737916 -0.07825731 -0.08248568 -0.2923206 -0.1164193 -0.09099067 -0.0704365 -0.08756446 -0.1833235 -0.11293 -0.01523371 -0.1336468 -0.08916847 -0.1513364 -0.1102697 -0.1201333 -0.231291 -0.123354 -0.04713367 -0.06735954 -0.064213 -0.1448601 -0.1014424 -0.0496547 -0.05008281 -0.137603 -0.07371596 -0.05843264 -0.1481627 -0.1227961 -0.05174727 -0.07927881 -0.08301757 -0.07051987 -0.05620173 -0.08522595 -0.1106627 -0.07258652 -0.06517539 -0.1026914 -0.1450735 -0.05879192 -0.1187444 -0.04400172 -0.09299762 -0.05986821 -0.09761396 -0.05289346 -0.08029512 -0.1105532 -0.05566948 -0.2519934 -0.118598 -0.08328298 -0.08389559 -0.015567 -0.1003573 -0.05244673 -0.1222732 -0.01476496 -0.1850423 -0.1075605 -0.09485509 -0.08804026 -0.2465153 -0.05379713 -0.1255722 -0.09430062 -0.01556485 -0.1185229 -0.09770196 -0.1960079 -0.09213188 -0.1612041 -0.09567769 -0.05510214 -0.1342876 -0.1237927 -0.1357792 -0.1127665 -0.01585875 -0.05917219 -0.1073638 -0.07790353 -0.1203947 -0.1072941 -0.07718819 -0.1311145 -0.1980798 -0.07564606 -0.3071105 -0.06999265 -0.04478968 -0.07379642 -0.1074547 -0.06048302 -0.03839431 -0.1137847 -0.09181659 -0.1132767 -0.10988 -0.279046 -0.05498939 -0.09755395 -0.07934955 -0.1147889 -0.08683534 -0.08391623 -0.1048681 -0.06771721 -0.2127375 -0.01473959 -0.0944893 -0.09594475 -0.0693452 -0.01697118 -0.09902287 -0.1079843 -0.131802 -0.09082343 -0.09327503 -0.131917 -0.07329205 -0.3141304 -0.09599022 -0.06742702 -0.0778304 -0.03188847 -0.1481305 -0.1960356 -0.06807581 -0.04637452 -0.05537373 -0.0736457 -0.1202992 -0.01472035 -0.01425024 -0.2046847 -0.160467 -0.05691552 -0.0749247 -0.1004361 -0.1861701 -0.1407314 -0.09562832 -0.1299079 -0.08141059 -0.2252325 -0.09401323 -0.05096164 -0.02262331 -0.06373364 -0.06494149 -0.0869101 -0.1079724 -0.01582021 -0.1248124 -0.08670909 -0.08417284 -0.06092333 -0.06769142 -0.05877109 -0.2947586 -0.0625948 -0.1424017 -0.1060981 -0.08693242 -0.1673548 -0.1251725 -0.05829677 -0.06966591 -0.1068309 -0.1674857 -0.0416346 -0.0643086 -0.09982942 -0.01609765 -0.0152018 -0.08749578 -0.2159931 -0.1028533 -0.0875141 -0.1328899 -0.08213031 -0.0557848 -0.05601167 -0.1050987 -0.0794715 -0.06970765 -0.1047299 -0.1086607 -0.01683697 -0.06690132 -0.09330522 -0.1324078 -0.1279701 -0.04485091 -0.0512886 -0.07554003 -0.2009246 -0.07853609 -0.09474528 -0.1227968 -0.07489487 -0.08197188 -0.1161593 -0.2016572 -0.04151253 -0.1064387 -0.05203405 -0.08725065 -0.09459313 -0.08716992 -0.08972952 -0.01510701 -0.07419237 -0.0934703 -0.078877 -0.1189349 -0.0855624 -0.06194489 -0.08926614 -0.1214103 -0.1391718 -0.1076655 -0.05176722 -0.0569145 -0.1159724 -0.07364349 -0.09068559 -0.08258405 -0.0551774 -0.07706736 -0.06046203 -0.06910827 -0.308506 -0.04758796 -0.1235707 -0.1012507 -0.07977251 -0.08560758 -0.05852364 -0.06947237 -0.0506995 -0.1126767 -0.0915362 -0.04400003 -0.1121771 -0.1141479 -0.06528576 -0.06273796 -0.05812503 -0.06380424 -0.07970788 -0.04260463 -0.08538349 -0.1073285 -0.05547003 -0.1242138 -0.04856665 -0.1338288 -0.1260384 -0.06268703 -0.05134918 -0.05350294 -0.1005159 -0.1025542 -0.09282318 -0.04721442 -0.1341678 -0.1131794 -0.01576185 -0.2506011 -0.04394677 -0.09431229 -0.1435723 -0.08366653 -0.01483785 -0.07103465 -0.1190602 -0.09473525 -0.06738964 -0.1079904 -0.3094197 -0.08441516 -0.1114272 -0.05332325 -0.1100311 -0.04459376 -0.02977778 -0.07520247 -0.2392974 -0.1013411 -0.1008947 -0.124143 -0.09794529 -0.05798766 -0.08538393 -0.0164622 -0.1248023 -0.09830458 -0.1012217 -0.08261621 -0.01496989 -0.09871233 -0.0660442 -0.1431007 -0.07659432 -0.07342232 -0.1030068 -0.04013427 -0.09393045 -0.1002247 -0.08448064 -0.09913725 -0.1106312 -0.07189579 -0.01484795 -0.1106071 -0.1339515 ]
<!EndOfComponent> 
<Rescale> 1024 1024 
<LearnRateCoef> 0  [ 1697.129 6.059739 8.289795 8.155604 2.445412 5.655056 6.182422 1869.967 5.368731 6.109555 5.772285 6.2616 5.572672 5.747966 5.712604 6.528927 11.21118 5.864304 4.236724 2.972733 8.909997 5.549568 7.005076 7.571397 8.590189 7.30791 4.20143 5.785539 4.749843 5.003756 5.985479 5.98329 8.116169 4.582171 2022.33 1905.214 5.878528 8.116821 7.28514 7.123709 5.656096 6.510143 2.728089 8.901572 7.088367 3.923503 5.557308 5.986515 4.714469 8.10023 5.185799 7.213399 6.128545 5.981725 9.095108 4.191246 6.022325 7.960561 6.8091 6.147127 5.037265 6.537128 3.810432 1834.291 2006.454 6.388343 7.568667 8.409648 7.181535 7.947638 4.099014 5.112215 7.205008 2073.367 6.413315 4.631792 1715.613 7.68787 8.464573 4.226521 3.74409 2.780441 6.396267 5.238547 4.886227 2212.318 1761.067 7.740314 6.412267 5.128778 3.534799 7.304774 3.16662 6.619231 5.235435 6.179938 2.903039 8.086474 5.514861 1805.843 7.730003 428.9529 6.516279 2.577613 6.227466 5.343699 7.030091 4.551192 4.245999 9.614571 6.340442 8.240442 3.056901 2.265472 5.931845 6.361893 5.788787 6.918773 3.451765 5.778897 2.737964 1621.994 4.247668 5.819117 5.153754 7.121165 5.692511 7.116059 7.055294 6.813801 8.5718 7.389449 4.3255 8.49854 5.586364 2017.472 2.784984 7.73108 4.211032 1766.604 6.96209 6.297968 7.580791 5.626232 7.473023 481.1526 6.496363 5.485935 3.97493 5.009568 5.298269 5.182992 6.100583 5.406538 5.506897 7.297097 1286.694 10.6529 4.228298 6.886301 10.12234 3.856159 7.084016 4.450803 7.003049 7.996878 9.661559 6.982983 3.211735 7.570422 4.202017 6.779121 4.775637 6.719968 7.288848 8.44285 2.627491 4.725311 4.301523 8.78148 7.753128 5.808646 2232.291 7.49462 7.378087 5.521192 4.761511 1606.101 4.578388 8.934359 3.195412 4.372076 6.258984 3.936598 5.698052 9.020472 7.090907 9.322296 2.818951 5.115719 10.58703 8.165589 3.577165 6.290209 4.538827 7.592526 4.898585 8.357173 5.230507 3.934306 7.366094 8.29722 8.447673 9.711475 5.484449 8.231098 8.346319 2.886265 8.526308 2.5482 6.198108 7.100252 8.833105 7.480301 7.033739 4.145741 3.421626 7.318061 5.892155 7.795962 7.822775 6.910753 10.7744 6.387157 7.091386 6.069624 1689.752 2.630527 7.376585 6.224322 5.893914 1780.524 9.009608 6.166303 8.761318 7.315748 5.213195 4.67887 1894.533 8.920572 5.022304 4.541062 8.392363 5.00932 3.825579 6.57898 6.723809 2.861142 5.439326 5.457611 8.86617 7.45792 3.257401 5.552249 3.687253 4.641637 7.586694 4.850038 7.367145 6.872011 1534.791 7.039215 6.046016 6.234468 6.494418 6.551014 3.699153 5.071667 6.096516 6.264654 5.208202 6.253809 7.977103 811.1755 6.54725 9.026914 7.475239 5.800231 7.576715 6.472603 5.995516 1749.718 5.79038 5.508468 9.294569 6.428602 8.314819 8.60602 6.960475 6.196624 9.387941 4.771019 8.140866 3.979814 2.743764 8.195352 8.368416 6.530926 4.885757 8.134329 2.237096 7.423751 9.262724 7.844923 913.2605 6.575702 1730.976 7.501906 8.024278 8.133181 6.554422 6.133502 8.788146 8.909814 8.794907 6.213456 6.767832 3.919006 6.030927 1707.354 5.489875 5.443173 5.825468 8.359528 5.478699 1552.167 7.476179 8.472217 7.235092 7.076049 3.281948 7.702455 11.23876 6.334216 7.090473 5.494916 7.924585 1765.292 6.848187 5.863823 6.936378 5.12741 8.50851 6.514218 6.620536 9.255312 7.045081 5.857456 5.346444 5.87169 1817.45 7.718901 933.7214 2162.483 7.43955 3.040818 7.895288 7.896136 6.245167 4.341959 4.454215 6.769463 7.789631 5.271037 4.033677 7.029336 6.08208 5.957709 5.840138 3.534612 6.204908 9.589828 9.44729 7.260665 7.872396 4.429819 6.436518 7.830515 5.870055 5.964181 5.949472 7.302673 5.990125 5.409159 2.904666 6.300368 5.703397 8.662505 7.260528 3.086634 6.340633 5.477806 5.509918 4.018336 4.598164 6.635287 6.592735 5.476364 4.791129 4.290987 2.73427 5.572116 2.884089 6.118798 5.850865 6.967348 5.334004 5.944456 5.860895 6.73345 2.722319 4.764574 2.899705 6.725 6.662797 7.393784 1840.029 8.573944 8.64292 6.667438 9.669925 6.899334 4.056448 6.722372 1997.914 4.225554 6.251882 2.863966 5.738048 2.958024 6.839494 5.175477 5.102013 6.812154 5.609098 6.029936 5.874773 5.009 9.081002 7.438652 6.66917 5.829573 2.686309 6.230461 1620.573 7.651921 6.220287 9.179335 6.595979 8.900461 5.839031 5.422276 7.975816 5.891576 4.541497 4.639485 6.130187 3.08072 5.328714 5.295331 7.419127 4.983853 6.33707 8.311764 5.993457 3.462286 3.445096 6.28597 5.565853 7.43919 7.658295 7.935073 6.379118 5.751562 1982.412 3.930702 5.962559 3.809998 7.01464 918.4395 7.661349 5.908117 5.217716 6.421993 4.083427 6.385391 3.589843 8.333443 4.930387 4.613955 6.887798 7.535068 12.44554 6.192974 4.946497 6.929092 5.933259 6.19799 7.391933 7.363101 7.359607 10.26992 1739.588 8.741691 7.178791 7.43244 7.083075 6.59692 5.845979 8.354636 6.153167 6.056368 6.924146 9.926547 2122.176 6.898229 7.73672 11.57638 6.222838 10.17185 4.240825 8.39938 2102.448 5.009235 6.037453 7.279409 2.238747 4.813656 1553.158 1791.886 6.28014 10.65483 7.25256 2.993866 4.2396 7.754272 2.855705 7.034616 9.464492 6.8709 4.013069 4.439577 4.814859 9.533782 7.154787 6.602631 4.133731 6.741757 2.264463 1693.066 6.058385 6.917503 6.891925 4.920189 2.823509 8.549808 7.125303 5.628257 5.0708 2.930856 9.049552 6.612836 4.87208 7.247899 7.273067 4.619709 3.452881 7.107843 1840.176 3.687097 4.42662 2.851542 8.157151 6.314745 6.810395 5.81176 4.926661 3.744714 6.213401 8.83366 6.251489 7.367507 1726.276 8.196547 10.01976 5.569843 7.103629 9.687897 6.632179 6.762452 6.930974 5.471098 8.860791 2.97884 6.504179 7.011937 1788.513 3.229708 4.450116 5.682037 8.105129 6.187596 6.891126 5.641169 6.622454 5.754663 5.659471 5.159023 6.846292 4.185019 8.209777 7.00481 6.088698 7.870973 7.120234 6.035079 5.915595 4.982994 5.25641 5.528655 5.282495 7.896526 6.324137 2.751465 7.851979 5.189345 3.952197 9.150856 6.162615 7.154822 6.089289 4.076471 6.119673 6.702759 6.1103 6.675686 1811.799 7.44166 9.325909 5.345917 6.166491 7.14528 2.351975 3.543606 6.483633 8.969218 3.952061 5.508333 5.502373 7.021323 5.899472 3.204784 7.346673 9.811469 5.251892 6.170612 6.359584 5.665496 5.933082 7.794916 7.35313 6.323753 8.189585 5.421178 8.557415 6.118657 5.318511 5.942639 8.414928 4.386987 3.005863 4.632706 2099.286 7.436133 8.105342 1131.218 8.491965 6.21041 5.675759 6.88001 8.340578 4.088685 5.310801 3.669761 1713.891 5.878267 6.475268 7.167166 9.946677 10.31565 4.786149 6.780266 4.215202 7.70906 3.707951 6.127779 5.786524 2.837211 6.038757 4.256134 7.32014 5.332161 3.813544 6.804675 1928.294 5.398274 7.850183 3.854006 7.734877 4.600171 3.083498 7.301038 7.564547 7.814761 6.959649 4.540547 4.24974 9.447406 9.841439 3.434014 7.893324 6.579034 4.224086 4.971316 6.671422 7.395717 4.774476 6.64272 6.364325 7.080859 5.168798 8.45036 5.784496 4.971529 3.731498 5.67696 7.302107 6.869513 4.126749 5.481331 7.905815 6.083203 6.014188 5.337729 6.952402 2.711063 5.467026 5.053223 8.534363 1812.51 7.537043 5.709933 4.689738 2107.863 3.939161 6.644901 6.171402 6.925731 3.000789 6.127615 5.405501 5.959491 1813.305 6.02483 5.381889 3.292656 5.467207 5.042756 6.569484 10.97541 5.498791 5.091257 3.694351 5.877657 1718.838 5.686069 4.473654 6.739662 6.317426 6.819993 7.484688 4.997185 2.872544 6.789739 2.763038 7.809502 9.09218 7.464942 5.899135 6.53669 8.620897 4.129178 6.325841 4.163506 3.699545 2.751605 5.945214 7.445407 7.761131 7.362322 7.912471 5.742417 3.926687 7.404768 2.825119 2118.402 5.724129 6.178134 4.952497 1414.089 6.656037 7.543997 6.005795 5.890254 5.629548 4.943274 7.828932 2.723891 4.723054 5.018371 4.749339 9.479753 4.531188 3.856277 7.731254 8.69521 5.990961 7.504351 5.609769 2126.432 2331.672 2.852575 5.28626 5.152092 7.134022 7.093946 3.134298 6.40568 7.554063 6.133231 8.222327 2.998822 6.539343 6.700401 9.729383 5.14279 6.806905 5.219008 5.113279 1730.743 5.032331 4.84376 8.200624 5.146322 6.963227 5.434485 2.675687 7.0741 5.486259 5.896059 5.243802 3.599521 3.73134 6.689413 6.778476 3.934426 3.618512 10.35435 8.470524 6.453098 1646.564 1939.737 7.221205 3.047107 7.546825 6.440605 6.471592 7.372096 10.41335 6.676562 8.361733 10.38575 7.855454 5.767695 5.282491 1446.931 5.381238 6.031868 5.084538 3.689559 9.412525 6.804945 4.620348 3.31014 5.999952 4.571898 4.836797 6.498586 9.708949 4.769205 3.657358 6.530316 4.662976 8.33094 6.919208 7.350776 6.231254 6.215172 1974.633 9.301201 6.310829 5.867137 5.813972 7.331223 6.205207 4.935552 5.682235 3.472029 6.370813 8.344067 6.374084 4.940501 6.421459 8.146618 7.17145 6.920134 11.21859 7.49567 8.693419 2.361284 6.654656 7.033855 8.535511 6.597411 9.190304 5.699065 9.041728 7.087344 3.878037 4.904704 7.251491 3.868683 6.587113 5.775481 5.70292 6.621675 5.8855 4.851637 7.401113 4.437649 5.885907 9.345273 3.967602 7.928394 7.147827 5.400563 6.231432 8.221066 9.161854 7.088839 6.729965 7.861297 7.414317 5.095412 5.332703 1749.14 2.719184 7.412338 5.542106 4.852867 5.871155 2078.592 4.842185 5.876753 6.347602 6.42087 6.924651 2.754282 5.54694 6.091094 10.0119 6.905026 7.030619 17.35981 6.395506 3.093556 7.686266 6.97982 5.358667 7.500909 7.4217 9.396114 1543.883 6.339113 6.13757 4.097468 8.673041 2026.958 4.864311 8.328738 4.896091 4.7562 9.113072 8.088326 7.280954 5.667263 5.486455 6.85757 7.04734 6.602386 8.273482 2074.631 5.987398 5.918319 ]
<!EndOfComponent> 
</Nnet> 
