<Nnet> 
<Splice> 440 40 
[ -5 -4 -3 -2 -1 0 1 2 3 4 5 ]
<!EndOfComponent> 
<AddShift> 440 440 
<LearnRateCoef> 0  [ 0.07017639 -0.000320645 -0.01158652 0.007102225 -0.1721777 -0.003935726 0.0008461399 0.0002821879 0.04420035 -0.01606414 0.01285991 -0.09964414 -0.002596957 -0.01474656 0.01440363 -0.005516338 -0.01151868 0.002938716 -0.008002535 0.03158129 0.001216234 -0.02617791 -0.01037873 0.008019676 0.001753223 -0.1184167 -0.004267152 0.004197264 0.0455458 -0.03544351 0.02434259 0.006154663 0.009260534 -0.00100186 0.02638361 0.002413088 -0.0005153217 0.0009985493 -0.02447883 0.002432254 0.06672145 -0.0002113256 -0.01029044 0.007085033 -0.1695394 -0.003824533 0.001005421 0.0003223369 0.04419154 -0.01454283 0.01302871 -0.09920817 -0.002517822 -0.01350294 0.01414969 -0.004734664 -0.01134254 0.002992545 -0.007472891 0.03213403 0.001593496 -0.02606076 -0.01012329 0.007926663 0.00176794 -0.1171832 -0.004154727 0.00426527 0.04565793 -0.03488821 0.0249866 0.006294895 0.009176381 -0.001053052 0.02602112 0.002236985 -0.0006454533 0.001741777 -0.02411635 0.002536215 0.06366371 7.667011e-05 -0.00911734 0.007048591 -0.1672774 -0.003639509 0.001197888 0.0004623766 0.04415692 -0.01308863 0.01320827 -0.098796 -0.002451993 -0.01243828 0.01385343 -0.003930053 -0.01122237 0.002982738 -0.007024831 0.03261995 0.001952606 -0.02597561 -0.00988795 0.007862036 0.001792424 -0.1161211 -0.004081345 0.00432537 0.04584951 -0.03441132 0.02546063 0.00645978 0.009048188 -0.001046203 0.02582124 0.002061328 -0.0007457313 0.002427674 -0.02381651 0.002697743 0.06089806 0.0005208419 -0.008050218 0.007026921 -0.165291 -0.003370455 0.001367748 0.0006759732 0.0437811 -0.01167986 0.01343853 -0.09827853 -0.002293908 -0.01153571 0.01353178 -0.003178644 -0.01108742 0.002955823 -0.006582202 0.03307746 0.002289417 -0.02602784 -0.009644981 0.008017213 0.001802847 -0.115266 -0.004037001 0.004472764 0.0461093 -0.03393272 0.0258213 0.006810045 0.008948084 -0.0009667021 0.02568587 0.001885576 -0.0008032107 0.003072523 -0.02354211 0.002892407 0.05833123 0.001100262 -0.007083144 0.006943953 -0.1636114 -0.003037041 0.001531179 0.0009663522 0.04323829 -0.01031678 0.01366396 -0.09768161 -0.002113723 -0.01077392 0.0131774 -0.002592103 -0.01091888 0.003065116 -0.006076853 0.03348231 0.002606747 -0.02620537 -0.009472768 0.007977352 0.001807961 -0.1146111 -0.003972083 0.004596237 0.04644807 -0.03345046 0.02616426 0.007210756 0.008850202 -0.0008398682 0.0255891 0.00168809 -0.0008203412 0.003686991 -0.0233588 0.003080101 0.0558955 0.00180941 -0.00619279 0.006720284 -0.1622058 -0.002655248 0.001626748 0.00130457 0.04261741 -0.008980683 0.01384436 -0.09706347 -0.001930346 -0.01012109 0.01279568 -0.002148607 -0.01070698 0.003237972 -0.005606099 0.03384572 0.002907131 -0.02642402 -0.00934296 0.007698274 0.00176212 -0.1140532 -0.003883101 0.004717989 0.04685066 -0.03296896 0.02650188 0.007611536 0.008734997 -0.0006841262 0.02578369 0.001452035 -0.0008249488 0.004253414 -0.02315346 0.003226489 0.05345976 0.002518559 -0.005302436 0.006496615 -0.1608001 -0.002273455 0.001722317 0.001642787 0.04199653 -0.007644584 0.01402476 -0.09644532 -0.001746968 -0.009468258 0.01241396 -0.001705111 -0.01049507 0.003410829 -0.005135346 0.03420911 0.003207515 -0.02664267 -0.009213153 0.007419197 0.001716279 -0.1134953 -0.003794119 0.004839742 0.04725324 -0.03248745 0.0268395 0.008012317 0.008619793 -0.0005283842 0.02597828 0.00121598 -0.0008295564 0.004819837 -0.02294813 0.003372877 0.05101854 0.003024789 -0.004410496 0.006153542 -0.1594049 -0.001993323 0.001717802 0.001945693 0.04142383 -0.006401731 0.01423882 -0.09583191 -0.001555502 -0.008799113 0.0120937 -0.001302367 -0.01020814 0.003666421 -0.005013782 0.03459618 0.003477249 -0.02692234 -0.009024467 0.00713102 0.001629264 -0.1129579 -0.003651711 0.00484097 0.04744026 -0.03198105 0.02741702 0.008420088 0.008499336 -0.0003861598 0.02616342 0.0009965968 -0.0008060138 0.005410149 -0.02256156 0.003542259 0.0486136 0.003335302 -0.003494886 0.005695276 -0.1579413 -0.00181282 0.001663213 0.002186031 0.04095696 -0.00526217 0.01445465 -0.09516017 -0.001407942 -0.00818601 0.01185284 -0.0009490275 -0.009841267 0.003963115 -0.005089086 0.03500181 0.003714149 -0.02715202 -0.008641752 0.006808495 0.001536996 -0.1125411 -0.003515835 0.004839137 0.04740072 -0.03135176 0.02807913 0.008643593 0.008406854 -0.0002452451 0.02618313 0.000859146 -0.0007525338 0.00598677 -0.02216889 0.003748367 0.04624069 0.003441674 -0.00255155 0.00522865 -0.1564895 -0.001758576 0.001585181 0.002371692 0.04069738 -0.00423389 0.01463681 -0.0945693 -0.001326271 -0.007827668 0.01171102 -0.0006535657 -0.009441663 0.004267632 -0.005039997 0.03542362 0.003907999 -0.02721524 -0.008003532 0.006473623 0.001441713 -0.112064 -0.00339429 0.004772367 0.04714797 -0.03061122 0.02866027 0.008801434 0.00835576 -0.0001310777 0.02627776 0.0009099108 -0.0006690125 0.006528998 -0.02167236 0.00396014 0.04389034 0.003316123 -0.001575829 0.00482524 -0.1550017 -0.001844937 0.001522417 0.002478464 0.04065368 -0.003326225 0.01479282 -0.09411985 -0.001289947 -0.007453717 0.01166581 -0.0003570704 -0.009039419 0.004432409 -0.004960287 0.03586392 0.004083735 -0.02713277 -0.007379661 0.00621803 0.001324727 -0.1115728 -0.003308109 0.004692461 0.04671394 -0.02984851 0.02901794 0.008957104 0.008321505 -3.689302e-05 0.02628615 0.0009451842 -0.0006078325 0.007045741 -0.02117203 0.004188506 ]
<!EndOfComponent> 
<Rescale> 440 440 
<LearnRateCoef> 0  [ 0.3243519 0.5013618 0.5478856 0.7784219 0.5603926 0.6796803 0.8009449 0.7223362 0.5580923 0.5369973 0.7806635 0.5539392 0.8230965 0.6191977 0.7730575 0.8662235 0.8744548 0.9141707 0.6177211 0.7191311 0.8890396 0.7985606 0.7724776 0.6755223 0.9421213 0.5625963 0.9327461 0.9023737 0.8907391 0.8158779 0.8216428 0.9040874 0.9255369 0.9272313 0.6410072 0.9380311 0.9520782 0.953136 0.7735108 0.9461755 0.3248062 0.5013812 0.5476425 0.7784222 0.5606639 0.6795871 0.80078 0.7222661 0.558126 0.5373568 0.7805416 0.554054 0.8231087 0.619262 0.7729856 0.8659164 0.8743849 0.9136252 0.6176381 0.7189516 0.8888913 0.7985029 0.7721825 0.6755475 0.9420762 0.5624821 0.9327679 0.9021126 0.890723 0.815345 0.8216946 0.9038745 0.924942 0.9272004 0.6409686 0.9374366 0.95178 0.9527489 0.7733971 0.9460109 0.3252186 0.5013604 0.5474347 0.7784308 0.5609134 0.6795403 0.8006434 0.7222362 0.5581622 0.5377134 0.7804582 0.5541669 0.8231411 0.6193206 0.772964 0.8656969 0.8743271 0.913103 0.6175624 0.7188028 0.8887962 0.7984937 0.7719049 0.6755773 0.9420608 0.5623825 0.9328237 0.9018776 0.8907877 0.8148481 0.8218747 0.9036411 0.9243746 0.9271861 0.640936 0.9368759 0.9515033 0.9524286 0.773272 0.9458713 0.3256002 0.501292 0.5472481 0.7784482 0.5611486 0.6795274 0.8005381 0.722227 0.5582779 0.5380636 0.7803757 0.5543604 0.8232244 0.6193655 0.7729485 0.8654211 0.8742391 0.9126349 0.6174956 0.7186533 0.8887134 0.7986129 0.7716473 0.6756248 0.9420391 0.5622894 0.9327763 0.9017503 0.8908324 0.8144482 0.8219196 0.9036272 0.9238716 0.9271612 0.6409788 0.9363653 0.9512598 0.952141 0.7731763 0.9457501 0.3259596 0.5011762 0.5470741 0.7784649 0.5613565 0.6795328 0.8004706 0.7222294 0.558419 0.5384018 0.7802605 0.5546121 0.8233738 0.6194074 0.77291 0.8651062 0.8741664 0.9121853 0.6174304 0.7184828 0.888619 0.7989462 0.7714139 0.6757097 0.9419995 0.5622063 0.9326512 0.9019516 0.8907152 0.8143511 0.8219982 0.9037969 0.923504 0.9271206 0.641046 0.935928 0.951202 0.9518485 0.7730879 0.9456531 0.326299 0.5010079 0.5468991 0.7785512 0.5615317 0.6795384 0.8004451 0.7222229 0.5585709 0.5387263 0.7801741 0.5548826 0.823542 0.6194476 0.7727997 0.8648716 0.8741866 0.9118901 0.6173768 0.7182826 0.8884724 0.7993576 0.7711902 0.6758488 0.9420008 0.5621357 0.9326817 0.9024676 0.8902553 0.8143672 0.8226146 0.9039675 0.923431 0.9270478 0.641297 0.9356316 0.9512674 0.9515209 0.7730259 0.9456171 0.3266397 0.5008397 0.5467244 0.7786374 0.5617075 0.679544 0.8004197 0.7222165 0.5587229 0.5390518 0.7800876 0.5551537 0.8237104 0.6194879 0.7726896 0.8646374 0.8742069 0.9115952 0.6173232 0.7180826 0.8883259 0.7997698 0.7709666 0.675988 0.9420022 0.5620652 0.9327123 0.9029846 0.8897963 0.8143834 0.8232325 0.9041384 0.923358 0.9269751 0.6415484 0.9353353 0.9513329 0.9511939 0.772964 0.9455811 0.3269823 0.5007102 0.546523 0.7787879 0.5619076 0.6794866 0.800472 0.7221654 0.5588746 0.5393366 0.7800907 0.5554358 0.8238976 0.6195344 0.7724482 0.864588 0.8744037 0.9112905 0.6173486 0.7178203 0.8880879 0.8003253 0.7708426 0.6761366 0.9420822 0.5620944 0.932908 0.9036569 0.8890705 0.8147405 0.8238391 0.9045184 0.9234467 0.9268465 0.6418714 0.9351416 0.9515595 0.950807 0.7730398 0.9456283 0.3273213 0.5006228 0.5463007 0.7789552 0.5621867 0.6793721 0.8005454 0.7220745 0.5590312 0.5395818 0.780114 0.555766 0.8240908 0.6195887 0.7721057 0.8645251 0.8746319 0.9111762 0.6174017 0.7175123 0.8877879 0.8009673 0.7708921 0.6763021 0.9421518 0.5621495 0.9330369 0.9044516 0.888236 0.8153966 0.8242583 0.905019 0.9237786 0.9266784 0.6422439 0.9351425 0.9519352 0.9504005 0.7731431 0.9456772 0.3276583 0.5005853 0.5460626 0.7791019 0.5624986 0.6792129 0.8006107 0.721955 0.5591699 0.5397896 0.7801045 0.5560961 0.8243062 0.619663 0.771695 0.8644002 0.8748116 0.9114619 0.617469 0.7171732 0.8874574 0.8017514 0.7711615 0.6764815 0.9421955 0.5622708 0.933046 0.9052864 0.8873727 0.8161095 0.8246475 0.905578 0.9242733 0.9264932 0.6426444 0.9354374 0.9523205 0.9499955 0.7733457 0.9457335 0.3279974 0.5006182 0.5458163 0.7792588 0.5628482 0.6790195 0.8006847 0.7218144 0.5592934 0.5399632 0.7801082 0.5564059 0.824535 0.6197469 0.7712683 0.864343 0.8750147 0.9117731 0.6175485 0.7168292 0.8871153 0.8025692 0.7714605 0.6766657 0.942242 0.562411 0.9330528 0.9061083 0.8864936 0.8167987 0.8251659 0.906157 0.9248658 0.9263089 0.6430803 0.9357796 0.9527373 0.9495878 0.7735432 0.9457952 ]
<!EndOfComponent> 
</Nnet> 
